{"learner":{"attributes":{"best_iteration":"173","best_score":"1.8391708919749685"},"feature_names":["Index","Year","AT","AP","AH","AFDP","GTEP","TIT","TAT","CDP","CO","NOX","AT_lag1","AT_lag3","AT_lag6","AT_lag24","AT_rollmean_3","AT_rollstd_3","AT_rollmean_12","AT_rollstd_12","AT_rollmean_24","AT_rollstd_24","AP_lag1","AP_lag3","AP_lag6","AP_lag24","AP_rollmean_3","AP_rollstd_3","AP_rollmean_12","AP_rollstd_12","AP_rollmean_24","AP_rollstd_24","AH_lag1","AH_lag3","AH_lag6","AH_lag24","AH_rollmean_3","AH_rollstd_3","AH_rollmean_12","AH_rollstd_12","AH_rollmean_24","AH_rollstd_24","AFDP_lag1","AFDP_lag3","AFDP_lag6","AFDP_lag24","AFDP_rollmean_3","AFDP_rollstd_3","AFDP_rollmean_12","AFDP_rollstd_12","AFDP_rollmean_24","AFDP_rollstd_24","GTEP_lag1","GTEP_lag3","GTEP_lag6","GTEP_lag24","GTEP_rollmean_3","GTEP_rollstd_3","GTEP_rollmean_12","GTEP_rollstd_12","GTEP_rollmean_24","GTEP_rollstd_24","TIT_lag1","TIT_lag3","TIT_lag6","TIT_lag24","TIT_rollmean_3","TIT_rollstd_3","TIT_rollmean_12","TIT_rollstd_12","TIT_rollmean_24","TIT_rollstd_24","TAT_lag1","TAT_lag3","TAT_lag6","TAT_lag24","TAT_rollmean_3","TAT_rollstd_3","TAT_rollmean_12","TAT_rollstd_12","TAT_rollmean_24","TAT_rollstd_24","CDP_lag1","CDP_lag3","CDP_lag6","CDP_lag24","CDP_rollmean_3","CDP_rollstd_3","CDP_rollmean_12","CDP_rollstd_12","CDP_rollmean_24","CDP_rollstd_24","CO_lag1","CO_lag3","CO_lag6","CO_lag24","CO_rollmean_3","CO_rollstd_3","CO_rollmean_12","CO_rollstd_12","CO_rollmean_24","CO_rollstd_24","NOX_lag1","NOX_lag3","NOX_lag6","NOX_lag24","NOX_rollmean_3","NOX_rollstd_3","NOX_rollmean_12","NOX_rollstd_12","NOX_rollmean_24","NOX_rollstd_24","hour","dayofweek","month","day","PC1","PC2"],"feature_types":["int","int","float","float","float","float","float","float","float","float","float","float","float","float","float","float","float","float","float","float","float","float","float","float","float","float","float","float","float","float","float","float","float","float","float","float","float","float","float","float","float","float","float","float","float","float","float","float","float","float","float","float","float","float","float","float","float","float","float","float","float","float","float","float","float","float","float","float","float","float","float","float","float","float","float","float","float","float","float","float","float","float","float","float","float","float","float","float","float","float","float","float","float","float","float","float","float","float","float","float","float","float","float","float","float","float","float","float","float","float","float","float","int","int","int","int","float","float"],"gradient_booster":{"model":{"gbtree_model_param":{"num_parallel_tree":"1","num_trees":"224"},"iteration_indptr":[0,1,2,3,4,5,6,7,8,9,10,11,12,13,14,15,16,17,18,19,20,21,22,23,24,25,26,27,28,29,30,31,32,33,34,35,36,37,38,39,40,41,42,43,44,45,46,47,48,49,50,51,52,53,54,55,56,57,58,59,60,61,62,63,64,65,66,67,68,69,70,71,72,73,74,75,76,77,78,79,80,81,82,83,84,85,86,87,88,89,90,91,92,93,94,95,96,97,98,99,100,101,102,103,104,105,106,107,108,109,110,111,112,113,114,115,116,117,118,119,120,121,122,123,124,125,126,127,128,129,130,131,132,133,134,135,136,137,138,139,140,141,142,143,144,145,146,147,148,149,150,151,152,153,154,155,156,157,158,159,160,161,162,163,164,165,166,167,168,169,170,171,172,173,174,175,176,177,178,179,180,181,182,183,184,185,186,187,188,189,190,191,192,193,194,195,196,197,198,199,200,201,202,203,204,205,206,207,208,209,210,211,212,213,214,215,216,217,218,219,220,221,222,223,224],"tree_info":[0,0,0,0,0,0,0,0,0,0,0,0,0,0,0,0,0,0,0,0,0,0,0,0,0,0,0,0,0,0,0,0,0,0,0,0,0,0,0,0,0,0,0,0,0,0,0,0,0,0,0,0,0,0,0,0,0,0,0,0,0,0,0,0,0,0,0,0,0,0,0,0,0,0,0,0,0,0,0,0,0,0,0,0,0,0,0,0,0,0,0,0,0,0,0,0,0,0,0,0,0,0,0,0,0,0,0,0,0,0,0,0,0,0,0,0,0,0,0,0,0,0,0,0,0,0,0,0,0,0,0,0,0,0,0,0,0,0,0,0,0,0,0,0,0,0,0,0,0,0,0,0,0,0,0,0,0,0,0,0,0,0,0,0,0,0,0,0,0,0,0,0,0,0,0,0,0,0,0,0,0,0,0,0,0,0,0,0,0,0,0,0,0,0,0,0,0,0,0,0,0,0,0,0,0,0,0,0,0,0,0,0,0,0,0,0,0,0,0,0,0,0,0,0],"trees":[{"base_weights":[-1.1321588E-2,-6.74367E0,2.1309118E1,-2.2229412E1,-8.0052346E-1,1.5569255E1,2.6347296E1,-2.3421844E1,-1.5173307E1,-8.2075615E0,7.407657E-3,1.2658907E1,1.8226402E1,2.939907E1,2.3421438E1,-2.7153395E1,-2.2892624E1,-1.704503E1,-1.3187822E1,-6.5408864E0,-1.0634117E1,-4.788821E0,5.176438E-1,9.393115E0,1.3558988E1,1.916494E1,1.6290543E1,2.8139318E1,1.6175145E0,2.4871668E1,2.1776917E1,-1.4425024E0,-1.2592257E0,-2.3753578E1,-2.1790075E1,-7.8678423E-1,-9.705024E-1,-5.9324133E-1,-7.486217E-1,-8.73806E0,-4.6598115E0,-1.1652695E1,-9.181613E0,-5.228521E0,7.775732E-1,3.7495673E-1,4.5524793E0,1.1573504E1,7.20639E0,1.5322663E1,1.2764003E1,1.0083396E0,9.1325396E-1,7.2990507E-1,8.3758014E-1,1.3184265E0,1.4460359E0,1.1722811E0,1.2878143E0,1.1182245E0,9.965295E-1,-1.1244546E0,-1.2039776E0,-1.0253329E0,-1.1180344E0,-4.6784297E-1,-3.5475907E-1,-2.75166E-1,-6.921529E-2,-5.9853595E-1,-4.7342664E-1,-3.5164678E-1,-5.1353425E-1,-2.7759007E-1,-2.3349169E-1,-1.9915177E-2,1.6334149E-1,-4.6970595E-2,2.4035977E-2,3.7562162E-1,8.962884E-2,6.318554E-1,5.1538944E-1,2.8251597E-1,3.9162087E-1,6.745883E-1,7.9625374E-1,5.569454E-1,6.763889E-1],"categories":[],"categories_nodes":[],"categories_segments":[],"categories_sizes":[],"default_left":[0,0,0,0,0,0,0,0,0,0,0,0,0,0,0,0,0,0,0,0,0,0,0,0,0,0,0,0,0,0,0,0,0,0,0,0,0,0,0,0,0,0,0,0,0,0,0,0,0,0,0,0,0,0,0,0,0,0,0,0,0,0,0,0,0,0,0,0,0,0,0,0,0,0,0,0,0,0,0,0,0,0,0,0,0,0,0,0,0],"id":0,"left_children":[1,3,5,7,9,11,13,15,17,19,21,23,25,27,29,31,33,35,37,39,41,43,45,47,49,51,53,55,-1,57,59,-1,-1,61,63,-1,-1,-1,-1,65,67,69,71,73,75,77,79,81,83,85,87,-1,-1,-1,-1,-1,-1,-1,-1,-1,-1,-1,-1,-1,-1,-1,-1,-1,-1,-1,-1,-1,-1,-1,-1,-1,-1,-1,-1,-1,-1,-1,-1,-1,-1,-1,-1,-1,-1],"loss_changes":[2.5161972E6,1.2261516E6,1.21249875E5,3.0734E4,5.7623625E4,1.4995969E4,1.9303625E4,5.616875E3,1.7708516E3,3.760379E3,2.12516E4,2.6445469E3,1.5537188E3,3.1495625E3,2.19625E3,5.6621875E2,2.114625E3,5.399453E2,4.4803125E2,2.2903223E3,4.611289E2,2.0477637E3,4.5171104E3,9.0355664E2,8.3778125E2,2.50125E2,2.2328125E1,3.069375E2,0E0,1.568125E2,1.4657812E2,0E0,0E0,9.56875E1,4.408125E2,0E0,0E0,0E0,0E0,1.9691406E2,8.378345E2,4.0859375E1,3.0919727E2,1.1386719E2,1.8277884E2,1.0544352E3,2.175874E3,7.0527344E0,5.9003418E1,3.219922E1,4.8729688E2,0E0,0E0,0E0,0E0,0E0,0E0,0E0,0E0,0E0,0E0,0E0,0E0,0E0,0E0,0E0,0E0,0E0,0E0,0E0,0E0,0E0,0E0,0E0,0E0,0E0,0E0,0E0,0E0,0E0,0E0,0E0,0E0,0E0,0E0,0E0,0E0,0E0,0E0],"parents":[2147483647,0,0,1,1,2,2,3,3,4,4,5,5,6,6,7,7,8,8,9,9,10,10,11,11,12,12,13,13,14,14,15,15,16,16,17,17,18,18,19,19,20,20,21,21,22,22,23,23,24,24,25,25,26,26,27,27,29,29,30,30,33,33,34,34,39,39,40,40,41,41,42,42,43,43,44,44,45,45,46,46,47,47,48,48,49,49,50,50],"right_children":[2,4,6,8,10,12,14,16,18,20,22,24,26,28,30,32,34,36,38,40,42,44,46,48,50,52,54,56,-1,58,60,-1,-1,62,64,-1,-1,-1,-1,66,68,70,72,74,76,78,80,82,84,86,88,-1,-1,-1,-1,-1,-1,-1,-1,-1,-1,-1,-1,-1,-1,-1,-1,-1,-1,-1,-1,-1,-1,-1,-1,-1,-1,-1,-1,-1,-1,-1,-1,-1,-1,-1,-1,-1,-1],"split_conditions":[1.2601E1,1.1212E1,1.359E1,1.083E1,1.1671E1,1.327E1,1.1839E1,1.0324E1,1.1011E1,2.0137E1,5.5494E1,1.2873E1,2.2455193E1,1.4159E1,1.519E1,1.8905E1,1.0547E1,2.1769E1,1.7944E1,1.1452E1,1.1514E1,2.813141E0,1.2357E1,2.1474E1,2.3641E1,1.8948E1,8.0128145E-1,1.3933E1,1.6175145E0,1.3808E1,1.97E1,-1.4425024E0,-1.2592257E0,5.9616513E0,1.98E1,-7.8678423E-1,-9.705024E-1,-5.9324133E-1,-7.486217E-1,1.1386E1,1.0806E3,1.0762E3,2.4003E1,1.1874E1,1.2329E1,1.1771E1,2.5584E1,1.35E1,1.2691E1,1.3001E1,1.3086E1,1.0083396E0,9.1325396E-1,7.2990507E-1,8.3758014E-1,1.3184265E0,1.4460359E0,1.1722811E0,1.2878143E0,1.1182245E0,9.965295E-1,-1.1244546E0,-1.2039776E0,-1.0253329E0,-1.1180344E0,-4.6784297E-1,-3.5475907E-1,-2.75166E-1,-6.921529E-2,-5.9853595E-1,-4.7342664E-1,-3.5164678E-1,-5.1353425E-1,-2.7759007E-1,-2.3349169E-1,-1.9915177E-2,1.6334149E-1,-4.6970595E-2,2.4035977E-2,3.7562162E-1,8.962884E-2,6.318554E-1,5.1538944E-1,2.8251597E-1,3.9162087E-1,6.745883E-1,7.9625374E-1,5.569454E-1,6.763889E-1],"split_indices":[9,9,9,9,9,9,2,9,9,2,11,9,18,9,2,6,9,2,2,9,9,116,9,2,2,2,100,9,0,9,2,0,0,71,2,0,0,0,0,9,7,7,2,9,9,9,2,2,9,9,9,0,0,0,0,0,0,0,0,0,0,0,0,0,0,0,0,0,0,0,0,0,0,0,0,0,0,0,0,0,0,0,0,0,0,0,0,0,0],"split_type":[0,0,0,0,0,0,0,0,0,0,0,0,0,0,0,0,0,0,0,0,0,0,0,0,0,0,0,0,0,0,0,0,0,0,0,0,0,0,0,0,0,0,0,0,0,0,0,0,0,0,0,0,0,0,0,0,0,0,0,0,0,0,0,0,0,0,0,0,0,0,0,0,0,0,0,0,0,0,0,0,0,0,0,0,0,0,0,0,0],"sum_hessian":[1.7528E4,1.3322E4,4.206E3,3.694E3,9.628E3,1.968E3,2.238E3,3.158E3,5.36E2,9.46E2,8.682E3,9.42E2,1.026E3,1.091E3,1.147E3,3.86E2,2.772E3,2.72E2,2.64E2,5.63E2,3.83E2,8.34E2,7.848E3,2.06E2,7.36E2,6.85E2,3.41E2,7.72E2,3.19E2,6.02E2,5.45E2,2E2,1.86E2,1.545E3,1.227E3,1.8E2,9.2E1,1.56E2,1.08E2,2.58E2,3.05E2,2.21E2,1.62E2,7.73E2,6.1E1,7.581E3,2.67E2,1.01E2,1.05E2,2.23E2,5.13E2,3.14E2,3.71E2,8E1,2.61E2,2.47E2,5.25E2,2.41E2,3.61E2,4.05E2,1.4E2,3.31E2,1.214E3,3.89E2,8.38E2,1.84E2,7.4E1,2.42E2,6.3E1,1.89E2,3.2E1,5.7E1,1.05E2,4.84E2,2.89E2,4.2E1,1.9E1,5.64E2,7.017E3,1.28E2,1.39E2,5E1,5.1E1,3.3E1,7.2E1,6.1E1,1.62E2,1.69E2,3.44E2],"tree_param":{"num_deleted":"0","num_feature":"118","num_nodes":"89","size_leaf_vector":"1"}},{"base_weights":[-6.3980035E-3,-6.3733745E0,2.0157965E1,-2.0850649E1,-7.1051294E-1,2.4666454E1,1.4623694E1,-2.2164816E1,-1.4013804E1,-2.4131019E-2,-5.949873E0,2.7793865E1,2.186786E1,1.2377275E1,1.7539087E1,-2.639451E1,-2.1730381E1,-1.2040803E1,-1.7555086E1,-6.7594156E0,3.411642E-1,-1.0097535E1,-4.763428E0,2.9898603E1,2.6066366E1,2.3248217E1,2.0054304E1,1.1338129E1,1.6372953E1,1.6702059E1,2.1743402E1,-1.0951596E0,-1.349479E0,-1.9788584E1,-2.234601E1,-8.392037E0,-1.2660219E1,-7.4019235E-1,-9.522191E-1,-1.5118309E0,-8.72456E0,2.0913807E-1,4.540358E0,-6.792025E0,-1.1081192E1,-5.0641537E0,1.9145705E0,1.5649102E0,1.4175857E0,2.6035336E-1,2.6126717E1,1.212254E0,1.0964946E0,1.0351498E0,1.8420902E1,8.000485E0,1.2274692E1,7.43393E-1,9.0732414E-1,8.795188E-1,7.389738E-1,1.2419007E0,2.0042177E1,-1.0093893E0,-7.8013295E-1,-1.1304992E0,-1.0358037E0,-4.5258307E-1,-3.095563E-1,-6.864304E-1,-5.653291E-1,-2.8695298E-2,-1.9835757E-1,-3.5444084E-1,-5.34526E-1,-8.138646E-2,1.906253E-2,3.991181E-1,9.509192E-2,-4.5959708E-1,-2.8426337E-1,-6.083706E-1,-5.182136E-1,-2.4462254E-1,-4.0061966E-1,1.9264412E-1,-3.532275E-2,1.243644E0,1.3554882E0,1.7176513E-1,9.246322E-1,5.372639E-1,2.9532948E-1,7.2056884E-1,5.900864E-1,1.0069462E0,2.8337175E-1],"categories":[],"categories_nodes":[],"categories_segments":[],"categories_sizes":[],"default_left":[0,0,0,0,0,0,0,0,0,0,0,0,0,0,0,0,0,0,0,0,0,0,0,0,0,0,0,0,0,0,0,0,0,0,0,0,0,0,0,0,0,0,0,0,0,0,0,0,0,0,0,0,0,0,0,0,0,0,0,0,0,0,0,0,0,0,0,0,0,0,0,0,0,0,0,0,0,0,0,0,0,0,0,0,0,0,0,0,0,0,0,0,0,0,0,0,0],"id":1,"left_children":[1,3,5,7,9,11,13,15,17,19,21,23,25,27,29,31,33,35,37,39,41,43,45,47,49,51,53,55,57,59,61,-1,-1,63,65,67,69,-1,-1,71,73,75,77,79,81,83,85,-1,-1,-1,87,-1,-1,-1,89,91,93,-1,-1,-1,-1,-1,95,-1,-1,-1,-1,-1,-1,-1,-1,-1,-1,-1,-1,-1,-1,-1,-1,-1,-1,-1,-1,-1,-1,-1,-1,-1,-1,-1,-1,-1,-1,-1,-1,-1,-1],"loss_changes":[2.2517622E6,1.0928159E6,1.04659E5,3.3364375E4,3.4462258E4,1.9680125E4,1.2174E4,5.199875E3,4.0297031E3,2.0851459E4,5.4141797E3,3.1874375E3,2.607875E3,4.2653906E3,2.5260469E3,1.7857812E2,2.97075E3,7.8198047E2,5.990156E2,4.482955E3,4.4558984E3,7.246035E2,1.7468262E3,1.6265625E2,6.2809375E2,3.7640625E2,1.8867188E2,2.5713203E3,3.1478125E2,9.1671875E2,2.0239062E2,0E0,0E0,8.4809375E2,4.61E2,3.1066406E1,3.278086E2,0E0,0E0,2.7407202E2,9.4362695E2,2.4649932E3,2.209859E3,1.0445288E2,2.0294922E1,3.7994922E2,1.9577577E2,0E0,0E0,0E0,7.140625E1,0E0,0E0,0E0,1.1063672E2,1.0285205E3,5.0196094E2,0E0,0E0,0E0,0E0,0E0,1.2417969E1,0E0,0E0,0E0,0E0,0E0,0E0,0E0,0E0,0E0,0E0,0E0,0E0,0E0,0E0,0E0,0E0,0E0,0E0,0E0,0E0,0E0,0E0,0E0,0E0,0E0,0E0,0E0,0E0,0E0,0E0,0E0,0E0,0E0,0E0],"parents":[2147483647,0,0,1,1,2,2,3,3,4,4,5,5,6,6,7,7,8,8,9,9,10,10,11,11,12,12,13,13,14,14,15,15,16,16,17,17,18,18,19,19,20,20,21,21,22,22,23,23,24,24,25,25,26,26,27,27,28,28,29,29,30,30,33,33,34,34,35,35,36,36,39,39,40,40,41,41,42,42,43,43,44,44,45,45,46,46,50,50,54,54,55,55,56,56,62,62],"right_children":[2,4,6,8,10,12,14,16,18,20,22,24,26,28,30,32,34,36,38,40,42,44,46,48,50,52,54,56,58,60,62,-1,-1,64,66,68,70,-1,-1,72,74,76,78,80,82,84,86,-1,-1,-1,88,-1,-1,-1,90,92,94,-1,-1,-1,-1,-1,96,-1,-1,-1,-1,-1,-1,-1,-1,-1,-1,-1,-1,-1,-1,-1,-1,-1,-1,-1,-1,-1,-1,-1,-1,-1,-1,-1,-1,-1,-1,-1,-1,-1,-1],"split_conditions":[2.7355E1,2.2347E1,5.3566E2,2.0868E1,1.963E4,1.1604333E1,3.0503E1,1.8905E1,2.0935E1,2.3275E1,2.419E1,5.278E2,1.490375E1,1.325275E1,3.1746E1,-5.938558E-1,6.878E3,5.85E3,-1.0398961E0,-2.0170352E0,2.647E1,2.0422E1,2.623E1,7.9721E0,2.8908E1,5.3186E2,1.7861084E1,2.8571E1,1.3402333E1,2.3372179E1,1.3765E1,-1.0951596E0,-1.349479E0,1.0793667E1,2.0295E1,1.0766875E3,2.1621E1,-7.4019235E-1,-9.522191E-1,7.9721E0,1.6287E1,1.1684E1,2.3014E1,2.3619E1,2.3515E1,2.1427E4,2.4706E1,1.5649102E0,1.4175857E0,2.6035336E-1,3.2542E1,1.212254E0,1.0964946E0,1.0351498E0,2.7777E1,2.1474E1,2.1388E1,7.43393E-1,9.0732414E-1,8.795188E-1,7.389738E-1,1.2419007E0,2.177E4,-1.0093893E0,-7.8013295E-1,-1.1304992E0,-1.0358037E0,-4.5258307E-1,-3.095563E-1,-6.864304E-1,-5.653291E-1,-2.8695298E-2,-1.9835757E-1,-3.5444084E-1,-5.34526E-1,-8.138646E-2,1.906253E-2,3.991181E-1,9.509192E-2,-4.5959708E-1,-2.8426337E-1,-6.083706E-1,-5.182136E-1,-2.4462254E-1,-4.0061966E-1,1.9264412E-1,-3.532275E-2,1.243644E0,1.3554882E0,1.7176513E-1,9.246322E-1,5.372639E-1,2.9532948E-1,7.2056884E-1,5.900864E-1,1.0069462E0,2.8337175E-1],"split_indices":[6,6,8,6,0,16,6,6,2,6,6,8,20,90,6,117,0,0,117,117,6,2,6,2,6,8,20,6,90,20,2,0,0,90,6,70,6,0,0,2,2,82,2,6,6,0,2,0,0,0,6,0,0,0,6,2,2,0,0,0,0,0,0,0,0,0,0,0,0,0,0,0,0,0,0,0,0,0,0,0,0,0,0,0,0,0,0,0,0,0,0,0,0,0,0,0,0],"split_type":[0,0,0,0,0,0,0,0,0,0,0,0,0,0,0,0,0,0,0,0,0,0,0,0,0,0,0,0,0,0,0,0,0,0,0,0,0,0,0,0,0,0,0,0,0,0,0,0,0,0,0,0,0,0,0,0,0,0,0,0,0,0,0,0,0,0,0,0,0,0,0,0,0,0,0,0,0,0,0,0,0,0,0,0,0,0,0,0,0,0,0,0,0,0,0,0,0],"sum_hessian":[1.7537E4,1.3329E4,4.208E3,3.747E3,9.582E3,2.317E3,1.891E3,3.141E3,6.06E2,8.473E3,1.109E3,1.09E3,1.227E3,1.071E3,8.2E2,2.87E2,2.854E3,3.92E2,2.14E2,4.35E2,8.038E3,2.45E2,8.64E2,4.84E2,6.06E2,6.9E2,5.37E2,8.53E2,2.18E2,6.88E2,1.32E2,3.8E1,2.49E2,6.95E2,2.159E3,5.9E1,3.33E2,7.9E1,1.35E2,1.19E2,3.16E2,7.794E3,2.44E2,5.8E1,1.87E2,8.27E2,3.7E1,2.44E2,2.4E2,2E0,6.04E2,3.83E2,3.07E2,3.76E2,1.61E2,1.89E2,6.64E2,1.23E2,9.5E1,4.65E2,2.23E2,4.2E1,9E1,6.31E2,6.4E1,1.847E3,3.12E2,4.3E1,1.6E1,1.81E2,1.52E2,8.7E1,3.2E1,1.75E2,1.41E2,6.67E2,7.127E3,1.05E2,1.39E2,1.6E1,4.2E1,6.8E1,1.19E2,7.84E2,4.3E1,2.1E1,1.6E1,2.77E2,3.27E2,1E0,1.6E2,8E1,1.09E2,1.15E2,5.49E2,8.9E1,1E0],"tree_param":{"num_deleted":"0","num_feature":"118","num_nodes":"97","size_leaf_vector":"1"}},{"base_weights":[-5.6562357E-2,-6.1035132E0,1.911978E1,-1.9987911E1,-7.2238964E-1,1.4522354E1,2.3865015E1,-2.1057528E1,-1.3788993E1,-7.55868E0,-8.007573E-2,1.2538308E1,1.8069075E1,2.634168E1,2.0704067E1,-2.5092531E1,-2.0641058E1,-1.1641624E1,-1.6719213E1,-8.876823E0,-4.429503E0,3.0592608E-1,-4.3155265E0,1.0114066E1,1.436367E1,1.0411305E0,1.6605072E1,1.4294363E0,2.5059774E1,2.1945433E1,1.883977E1,-1.2886972E0,-1.0937752E0,-1.8843355E1,-2.1212284E1,-7.9495068E0,-1.2369673E1,-9.0665686E-1,-7.185246E-1,-7.5217E0,-1.076865E1,-7.5902516E-1,-6.4435215E0,1.8417229E-1,4.2408724E0,-4.5788426E0,9.46331E-1,1.2215187E1,8.773381E0,8.374864E-1,1.3406634E1,1.2141489E1,1.6982124E1,1.1919886E0,1.2970384E0,1.0332493E0,1.1346234E0,9.650766E-1,8.335692E-1,-9.605486E-1,-7.455619E-1,-1.0652007E0,-8.234917E-1,-4.173638E-1,-2.4723963E-1,-6.6679007E-1,-5.346259E-1,-4.3742618E-1,-2.9886195E-1,-5.768741E-1,-4.8658705E-1,-4.9781455E-3,-1.2704602E-1,-2.5814846E-1,-4.7062236E-1,-8.5044794E-2,1.8252714E-2,3.1550106E-1,8.8218436E-2,-2.4034007E-1,-2.0047013E-1,1.4287138E-1,-2.7740298E-2,5.679378E-1,7.044234E-1,3.3795223E-1,5.0190693E-1,6.334054E-1,7.08747E-1,7.3078835E-1,4.887689E-1,8.644263E-1,7.534782E-1],"categories":[],"categories_nodes":[],"categories_segments":[],"categories_sizes":[],"default_left":[0,0,0,0,0,0,0,0,0,0,0,0,0,0,0,0,0,0,0,0,0,0,0,0,0,0,0,0,0,0,0,0,0,0,0,0,0,0,0,0,0,0,0,0,0,0,0,0,0,0,0,0,0,0,0,0,0,0,0,0,0,0,0,0,0,0,0,0,0,0,0,0,0,0,0,0,0,0,0,0,0,0,0,0,0,0,0,0,0,0,0,0,0],"id":2,"left_children":[1,3,5,7,9,11,13,15,17,19,21,23,25,27,29,31,33,35,37,39,41,43,45,47,49,-1,51,-1,53,55,57,-1,-1,59,61,63,65,-1,-1,67,69,71,73,75,77,79,81,83,85,-1,87,89,91,-1,-1,-1,-1,-1,-1,-1,-1,-1,-1,-1,-1,-1,-1,-1,-1,-1,-1,-1,-1,-1,-1,-1,-1,-1,-1,-1,-1,-1,-1,-1,-1,-1,-1,-1,-1,-1,-1,-1,-1],"loss_changes":[2.045043E6,1.0017464E6,9.1890875E4,2.454075E4,4.243445E4,1.49026875E4,1.5730375E4,4.846E3,3.2912734E3,3.3841836E3,1.4445589E4,5.97025E3,2.7542188E3,2.63075E3,1.7110312E3,8.06875E1,2.577375E3,7.6990625E2,5.098672E2,1.4136133E3,1.8284272E3,3.878928E3,1.0268564E3,1.5745469E3,1.5702969E3,0E0,6.4709375E2,0E0,1.8553125E2,5.2375E1,5.2703125E1,0E0,0E0,7.3696875E2,6.02625E2,2.565503E1,2.9166016E2,0E0,0E0,5.976172E2,7.984766E1,1.0433025E2,5.5970215E2,2.6793188E3,1.2340605E3,7.198242E1,1.04862755E2,2.0896875E2,8.6968555E2,0E0,1.4158594E2,1.08865234E2,1.196875E1,0E0,0E0,0E0,0E0,0E0,0E0,0E0,0E0,0E0,0E0,0E0,0E0,0E0,0E0,0E0,0E0,0E0,0E0,0E0,0E0,0E0,0E0,0E0,0E0,0E0,0E0,0E0,0E0,0E0,0E0,0E0,0E0,0E0,0E0,0E0,0E0,0E0,0E0,0E0,0E0],"parents":[2147483647,0,0,1,1,2,2,3,3,4,4,5,5,6,6,7,7,8,8,9,9,10,10,11,11,12,12,13,13,14,14,15,15,16,16,17,17,18,18,19,19,20,20,21,21,22,22,23,23,24,24,26,26,28,28,29,29,30,30,33,33,34,34,35,35,36,36,39,39,40,40,41,41,42,42,43,43,44,44,45,45,46,46,47,47,48,48,50,50,51,51,52,52],"right_children":[2,4,6,8,10,12,14,16,18,20,22,24,26,28,30,32,34,36,38,40,42,44,46,48,50,-1,52,-1,54,56,58,-1,-1,60,62,64,66,-1,-1,68,70,72,74,76,78,80,82,84,86,-1,88,90,92,-1,-1,-1,-1,-1,-1,-1,-1,-1,-1,-1,-1,-1,-1,-1,-1,-1,-1,-1,-1,-1,-1,-1,-1,-1,-1,-1,-1,-1,-1,-1,-1,-1,-1,-1,-1,-1,-1,-1,-1],"split_conditions":[2.7355E1,2.2185E1,3.1549E1,2.0868E1,-5.2178993E0,1.3384334E1,1.1992333E1,1.8905E1,1.9027262E1,2.4099E1,1.9885E4,2.9926E1,5.346825E2,8.3524E0,1.6019E1,-3.0525883E1,6.878E3,5.85E3,1.0653E3,2.1005333E1,1.5522E1,2.647E1,1.0839E3,5.4308295E2,2.1819042E1,1.0411305E0,2.8908E1,1.4294363E0,3.261E1,1.375E1,2.1119833E1,-1.2886972E0,-1.0937752E0,1.0793667E1,-1.9599415E1,1.079E3,2.1621E1,-9.0665686E-1,-7.185246E-1,2.296E1,2.3515E1,1.2725E1,2.6041E1,1.1684E1,5.484375E2,1.0802E3,2.4802E1,1.3207666E1,2.8571E1,8.374864E-1,3.0503E1,9.702E3,2.267539E1,1.1919886E0,1.2970384E0,1.0332493E0,1.1346234E0,9.650766E-1,8.335692E-1,-9.605486E-1,-7.455619E-1,-1.0652007E0,-8.234917E-1,-4.173638E-1,-2.4723963E-1,-6.6679007E-1,-5.346259E-1,-4.3742618E-1,-2.9886195E-1,-5.768741E-1,-4.8658705E-1,-4.9781455E-3,-1.2704602E-1,-2.5814846E-1,-4.7062236E-1,-8.5044794E-2,1.8252714E-2,3.1550106E-1,8.8218436E-2,-2.4034007E-1,-2.0047013E-1,1.4287138E-1,-2.7740298E-2,5.679378E-1,7.044234E-1,3.3795223E-1,5.0190693E-1,6.334054E-1,7.08747E-1,7.3078835E-1,4.887689E-1,8.644263E-1,7.534782E-1],"split_indices":[6,6,6,6,116,86,16,6,20,6,0,6,80,12,12,116,0,0,7,16,12,6,7,80,20,0,6,0,6,82,20,0,0,90,116,68,6,0,0,6,6,12,12,82,80,7,12,88,6,0,6,0,20,0,0,0,0,0,0,0,0,0,0,0,0,0,0,0,0,0,0,0,0,0,0,0,0,0,0,0,0,0,0,0,0,0,0,0,0,0,0,0,0],"split_type":[0,0,0,0,0,0,0,0,0,0,0,0,0,0,0,0,0,0,0,0,0,0,0,0,0,0,0,0,0,0,0,0,0,0,0,0,0,0,0,0,0,0,0,0,0,0,0,0,0,0,0,0,0,0,0,0,0,0,0,0,0,0,0,0,0,0,0,0,0,0,0,0,0,0,0,0,0,0,0,0,0,0,0,0,0,0,0,0,0,0,0,0,0],"sum_hessian":[1.7634E4,1.3407E4,4.227E3,3.744E3,9.663E3,2.149E3,2.078E3,3.191E3,5.53E2,8.29E2,8.834E3,1.381E3,7.68E2,1.161E3,9.17E2,2.93E2,2.898E3,3.22E2,2.31E2,5.82E2,2.47E2,8.097E3,7.37E2,5.96E2,7.85E2,2.62E2,5.06E2,4.14E2,7.47E2,5.44E2,3.73E2,2.36E2,5.7E1,7.07E2,2.191E3,5.5E1,2.67E2,1.4E2,9.1E1,3.42E2,2.4E2,8.8E1,1.59E2,7.855E3,2.42E2,7.02E2,3.5E1,2.29E2,3.67E2,2.2E2,5.65E2,4.2E1,4.64E2,3.25E2,4.22E2,2.11E2,3.33E2,3.01E2,7.2E1,6.43E2,6.4E1,2.146E3,4.5E1,4.7E1,8E0,1.65E2,1.02E2,1.88E2,1.54E2,1.32E2,1.08E2,6.5E1,2.3E1,1.13E2,4.6E1,6.87E2,7.168E3,1.31E2,1.11E2,4.96E2,2.06E2,1.5E1,2E1,1.62E2,6.7E1,1.44E2,2.23E2,2.97E2,2.68E2,1.8E1,2.4E1,3.93E2,7.1E1],"tree_param":{"num_deleted":"0","num_feature":"118","num_nodes":"93","size_leaf_vector":"1"}},{"base_weights":[-1.2954019E-1,-5.780185E0,1.8299612E1,-1.905248E1,-6.922185E-1,1.3646043E1,2.2919514E1,-2.00733E1,-1.3016885E1,-7.4155226E0,-1.34034585E-2,1.0986301E1,1.6098368E1,2.0512829E1,2.540589E1,-2.3372616E1,-1.9626553E1,-1.1337726E1,-1.4672622E1,-5.9760275E0,-9.460112E0,-4.0828524E0,4.3494475E-1,9.121016E0,1.218242E1,1.71169E1,1.4380244E1,1.1048691E0,1.9295698E1,2.732171E1,1.1949865E0,-1.2402246E0,-1.0782807E0,-2.0332424E1,-1.8602333E1,-6.4382374E-1,-5.0505614E-1,-7.9403496E-1,-6.4583784E-1,-7.5416536E0,-4.469449E0,-9.974747E0,-8.138346E0,-4.4835973E0,3.812699E-1,3.187292E-1,3.8538444E0,1.1368877E1,8.174507E0,7.2145027E-1,1.1641846E1,9.1841567E-1,8.2629997E-1,6.3253844E-1,1.4718225E1,9.801078E-1,8.399006E-1,1.3126887E0,1.451526E0,-9.437116E-1,-1.035229E0,-8.963807E-1,-9.834496E-1,-4.4098932E-1,-3.415746E-1,-2.4213569E-1,-5.3521127E-2,-4.9954844E-1,-1.4473668E-1,-3.203433E-1,-4.531323E-1,-2.194645E-1,-3.6808908E-1,-1.3115446E-2,1.4436309E-1,-4.7753654E-2,2.1672456E-2,3.4269145E-1,8.287244E-2,4.5590279E-1,5.9683657E-1,3.043066E-1,4.5236903E-1,5.333906E-1,6.0857844E-1,7.3820597E-1,3.637684E-1],"categories":[],"categories_nodes":[],"categories_segments":[],"categories_sizes":[],"default_left":[0,0,0,0,0,0,0,0,0,0,0,0,0,0,0,0,0,0,0,0,0,0,0,0,0,0,0,0,0,0,0,0,0,0,0,0,0,0,0,0,0,0,0,0,0,0,0,0,0,0,0,0,0,0,0,0,0,0,0,0,0,0,0,0,0,0,0,0,0,0,0,0,0,0,0,0,0,0,0,0,0,0,0,0,0,0,0],"id":3,"left_children":[1,3,5,7,9,11,13,15,17,19,21,23,25,27,29,31,33,35,37,39,41,43,45,47,49,51,53,-1,55,57,-1,-1,-1,59,61,-1,-1,-1,-1,63,65,67,69,71,73,75,77,79,81,-1,83,-1,-1,-1,85,-1,-1,-1,-1,-1,-1,-1,-1,-1,-1,-1,-1,-1,-1,-1,-1,-1,-1,-1,-1,-1,-1,-1,-1,-1,-1,-1,-1,-1,-1,-1,-1],"loss_changes":[1.8265574E6,9.064959E5,8.8177375E4,2.2658625E4,4.429235E4,1.32139375E4,1.1829625E4,4.2285E3,1.33775E3,2.5628945E3,1.6086834E4,2.093211E3,1.6193125E3,1.6063438E3,2.2643125E3,4.3275E2,1.651125E3,3.8940234E2,3.6548438E2,1.2046309E3,1.6778711E2,1.5670615E3,3.1543606E3,7.36834E2,5.5947656E2,1.874375E2,4.9367188E1,0E0,1.3304688E2,3.7125E1,0E0,0E0,0E0,5.0525E2,4.800625E2,0E0,0E0,0E0,0E0,1.7211426E2,3.37375E2,8.2421875E-1,1.1478076E2,1.8564844E2,1.18492004E2,1.122988E3,1.7084089E3,3.559082E1,4.5169922E2,0E0,1.2194531E2,0E0,0E0,0E0,5.65625E0,0E0,0E0,0E0,0E0,0E0,0E0,0E0,0E0,0E0,0E0,0E0,0E0,0E0,0E0,0E0,0E0,0E0,0E0,0E0,0E0,0E0,0E0,0E0,0E0,0E0,0E0,0E0,0E0,0E0,0E0,0E0,0E0],"parents":[2147483647,0,0,1,1,2,2,3,3,4,4,5,5,6,6,7,7,8,8,9,9,10,10,11,11,12,12,13,13,14,14,15,15,16,16,17,17,18,18,19,19,20,20,21,21,22,22,23,23,24,24,25,25,26,26,28,28,29,29,33,33,34,34,39,39,40,40,41,41,42,42,43,43,44,44,45,45,46,46,47,47,48,48,50,50,54,54],"right_children":[2,4,6,8,10,12,14,16,18,20,22,24,26,28,30,32,34,36,38,40,42,44,46,48,50,52,54,-1,56,58,-1,-1,-1,60,62,-1,-1,-1,-1,64,66,68,70,72,74,76,78,80,82,-1,84,-1,-1,-1,86,-1,-1,-1,-1,-1,-1,-1,-1,-1,-1,-1,-1,-1,-1,-1,-1,-1,-1,-1,-1,-1,-1,-1,-1,-1,-1,-1,-1,-1,-1,-1,-1],"split_conditions":[1.2601E1,1.1212E1,1.3631E1,1.083E1,1.1649E1,1.3292E1,1.3933E1,1.0324E1,1.8126E1,2.0508E1,5.6018E1,1.305E1,2.1455208E1,1.359E1,8.8781E0,1.8905E1,1.0556E1,1.1011E1,1.1011E1,1.1452E1,1.1543E1,3.5325072E0,1.2357E1,1.7401E1,2.1388E1,1.6193E1,8.1160855E-1,1.1048691E0,1.8005709E1,1.4225E1,1.1949865E0,-1.2402246E0,-1.0782807E0,7.22E3,2.258235E1,-6.4382374E-1,-5.0505614E-1,-7.9403496E-1,-6.4583784E-1,1.1298E1,-5.4522693E-1,-1.3644795E0,2.4313E1,2.1513E4,1.2329E1,1.1771E1,2.4212E1,1.2691E1,1.2788E1,7.2145027E-1,1.3149E1,9.1841567E-1,8.2629997E-1,6.3253844E-1,3.1038E1,9.801078E-1,8.399006E-1,1.3126887E0,1.451526E0,-9.437116E-1,-1.035229E0,-8.963807E-1,-9.834496E-1,-4.4098932E-1,-3.415746E-1,-2.4213569E-1,-5.3521127E-2,-4.9954844E-1,-1.4473668E-1,-3.203433E-1,-4.531323E-1,-2.194645E-1,-3.6808908E-1,-1.3115446E-2,1.4436309E-1,-4.7753654E-2,2.1672456E-2,3.4269145E-1,8.287244E-2,4.5590279E-1,5.9683657E-1,3.043066E-1,4.5236903E-1,5.333906E-1,6.0857844E-1,7.3820597E-1,3.637684E-1],"split_indices":[9,9,9,9,9,9,9,9,2,2,11,9,20,2,2,6,9,9,9,9,9,116,9,2,2,2,100,0,20,9,0,0,0,0,20,0,0,0,0,9,116,116,2,0,9,9,2,9,9,0,9,0,0,0,16,0,0,0,0,0,0,0,0,0,0,0,0,0,0,0,0,0,0,0,0,0,0,0,0,0,0,0,0,0,0,0,0],"split_type":[0,0,0,0,0,0,0,0,0,0,0,0,0,0,0,0,0,0,0,0,0,0,0,0,0,0,0,0,0,0,0,0,0,0,0,0,0,0,0,0,0,0,0,0,0,0,0,0,0,0,0,0,0,0,0,0,0,0,0,0,0,0,0,0,0,0,0,0,0,0,0,0,0,0,0,0,0,0,0,0,0,0,0,0,0,0,0],"sum_hessian":[1.7538E4,1.3423E4,4.115E3,3.719E3,9.704E3,2.052E3,2.063E3,3.179E3,5.4E2,8.89E2,8.815E3,9.87E2,1.065E3,1.053E3,1.01E3,3.73E2,2.806E3,2.72E2,2.68E2,5.24E2,3.65E2,8.74E2,7.941E3,3.89E2,5.98E2,6.63E2,4.02E2,4.5E2,6.03E2,4.37E2,5.73E2,2.01E2,1.72E2,1.65E3,1.156E3,1.17E2,1.55E2,1.54E2,1.14E2,2.55E2,2.69E2,2.58E2,1.07E2,8.02E2,7.2E1,7.681E3,2.6E2,1.12E2,2.77E2,1.11E2,4.87E2,2.03E2,4.6E2,7.2E1,3.3E2,5.31E2,7.2E1,2.79E2,1.58E2,3.46E2,1.304E3,7.19E2,4.37E2,8.7E1,1.68E2,2.42E2,2.7E1,2.57E2,1E0,4E1,6.7E1,7.79E2,2.3E1,5.8E1,1.4E1,6.34E2,7.047E3,1.09E2,1.51E2,2.6E1,8.6E1,8.4E1,1.93E2,1.79E2,3.08E2,3.27E2,3E0],"tree_param":{"num_deleted":"0","num_feature":"118","num_nodes":"87","size_leaf_vector":"1"}},{"base_weights":[2.175475E-2,-5.4604273E0,1.739347E1,-1.8060541E1,-6.423254E-1,1.2803436E1,2.168483E1,-1.9084074E1,-1.2374891E1,-6.884263E0,1.9339224E-2,1.0327251E1,1.5001548E1,1.9381577E1,2.4161123E1,-2.2492254E1,-1.8690935E1,-1.3893152E1,-1.0887149E1,-2.8348477E0,-7.4203897E0,-3.8138182E0,4.27625E-1,7.614556E0,1.1014962E1,1.6118048E1,1.3434924E1,1.036411E0,1.8178267E1,2.6199104E1,2.2832603E1,-1.1834224E0,-1.0409672E0,-1.9553534E1,-1.788784E1,-8.281274E-1,-1.3317977E1,-4.8476273E-1,-6.051721E-1,-4.923274E0,-1.07655E0,-6.3986845E0,-8.927209E0,-4.2280765E0,2.979972E-1,3.1087214E-1,3.7534864E0,5.899734E0,8.988947E0,1.1958911E1,1.025352E1,8.846771E-1,7.871695E-1,6.94643E-1,6.035554E-1,9.2627203E-1,8.056092E-1,1.2320265E0,1.3727999E0,1.1818995E0,1.0837375E0,-9.0073794E-1,-9.902399E-1,-8.658177E-1,-9.4280225E-1,-6.230206E-1,-7.332277E-1,-2.8468466E-1,-1.7414801E-1,-1.0255486E-1,-9.375347E-3,-4.0115395E-1,-2.7121836E-1,-2.662902E-1,-4.553473E-1,-2.28388E-1,-1.8795598E-1,-1.911912E-2,1.2935863E-1,8.009518E-2,1.03955325E-2,8.608138E-2,3.1415555E-1,3.5230717E-1,2.3382913E-1,3.2674214E-1,4.8061624E-1,5.435154E-1,6.3691026E-1,4.6304902E-1,5.380533E-1],"categories":[],"categories_nodes":[],"categories_segments":[],"categories_sizes":[],"default_left":[0,0,0,0,0,0,0,0,0,0,0,0,0,0,0,0,0,0,0,0,0,0,0,0,0,0,0,0,0,0,0,0,0,0,0,0,0,0,0,0,0,0,0,0,0,0,0,0,0,0,0,0,0,0,0,0,0,0,0,0,0,0,0,0,0,0,0,0,0,0,0,0,0,0,0,0,0,0,0,0,0,0,0,0,0,0,0,0,0,0,0],"id":4,"left_children":[1,3,5,7,9,11,13,15,17,19,21,23,25,27,29,31,33,35,37,39,41,43,45,47,49,51,53,-1,55,57,59,-1,-1,61,63,-1,65,-1,-1,67,69,71,73,75,77,79,81,83,85,87,89,-1,-1,-1,-1,-1,-1,-1,-1,-1,-1,-1,-1,-1,-1,-1,-1,-1,-1,-1,-1,-1,-1,-1,-1,-1,-1,-1,-1,-1,-1,-1,-1,-1,-1,-1,-1,-1,-1,-1,-1],"loss_changes":[1.6749914E6,8.116022E5,8.2826E4,2.128425E4,3.9946164E4,1.0954125E4,1.195975E4,3.776E3,1.1294766E3,1.9914805E3,1.3689327E4,1.7126484E3,1.6707656E3,1.4607812E3,2.233875E3,1.3490625E2,1.5996875E3,2.0471484E2,3.0451172E2,3.986281E2,1.2022109E3,1.4354844E3,3.068375E3,4.1362207E2,4.2795312E2,9.034375E1,1.1646094E2,0E0,1.3690625E2,1.188125E2,8.5375E1,0E0,0E0,1.6365625E2,4.863125E2,0E0,8.633594E1,0E0,0E0,3.5651367E1,5.2466682E1,7.335742E2,1.638125E2,1.0469141E2,1.2247492E2,1.01495984E3,1.3666597E3,9.465112E1,1.0240723E2,1.4657422E2,1.1746094E2,0E0,0E0,0E0,0E0,0E0,0E0,0E0,0E0,0E0,0E0,0E0,0E0,0E0,0E0,0E0,0E0,0E0,0E0,0E0,0E0,0E0,0E0,0E0,0E0,0E0,0E0,0E0,0E0,0E0,0E0,0E0,0E0,0E0,0E0,0E0,0E0,0E0,0E0,0E0,0E0],"parents":[2147483647,0,0,1,1,2,2,3,3,4,4,5,5,6,6,7,7,8,8,9,9,10,10,11,11,12,12,13,13,14,14,15,15,16,16,17,17,18,18,19,19,20,20,21,21,22,22,23,23,24,24,25,25,26,26,28,28,29,29,30,30,33,33,34,34,36,36,39,39,40,40,41,41,42,42,43,43,44,44,45,45,46,46,47,47,48,48,49,49,50,50],"right_children":[2,4,6,8,10,12,14,16,18,20,22,24,26,28,30,32,34,36,38,40,42,44,46,48,50,52,54,-1,56,58,60,-1,-1,62,64,-1,66,-1,-1,68,70,72,74,76,78,80,82,84,86,88,90,-1,-1,-1,-1,-1,-1,-1,-1,-1,-1,-1,-1,-1,-1,-1,-1,-1,-1,-1,-1,-1,-1,-1,-1,-1,-1,-1,-1,-1,-1,-1,-1,-1,-1,-1,-1,-1,-1,-1,-1],"split_conditions":[1.2601E1,1.1212E1,1.3609E1,1.083E1,1.1671E1,1.327E1,1.3933E1,1.0306E1,1.1011E1,-2.0170352E0,5.6018E1,1.2873E1,2.1455208E1,1.3925709E1,8.4606E0,1.0243E1,1.0511E1,2.0501917E1,1.6690332E1,1.1783208E1,2.1196E1,2.813141E0,1.2357E1,7.3922E1,2.5141396E1,5.351675E2,2.4931042E1,1.036411E0,1.84575E1,1.4195E1,1.0835783E1,-1.1834224E0,-1.0409672E0,7.22E3,2.258235E1,-8.281274E-1,2.102979E1,-4.8476273E-1,-6.051721E-1,1.0781E3,1.0853875E3,1.1386E1,5.764E3,1.1868E1,1.2329E1,3.108E3,7.3922E1,5.460867E2,5.9664E1,1.3113E1,1.3086E1,8.846771E-1,7.871695E-1,6.94643E-1,6.035554E-1,9.2627203E-1,8.056092E-1,1.2320265E0,1.3727999E0,1.1818995E0,1.0837375E0,-9.0073794E-1,-9.902399E-1,-8.658177E-1,-9.4280225E-1,-6.230206E-1,-7.332277E-1,-2.8468466E-1,-1.7414801E-1,-1.0255486E-1,-9.375347E-3,-4.0115395E-1,-2.7121836E-1,-2.662902E-1,-4.553473E-1,-2.28388E-1,-1.8795598E-1,-1.911912E-2,1.2935863E-1,8.009518E-2,1.03955325E-2,8.608138E-2,3.1415555E-1,3.5230717E-1,2.3382913E-1,3.2674214E-1,4.8061624E-1,5.435154E-1,6.3691026E-1,4.6304902E-1,5.380533E-1],"split_indices":[9,9,9,9,9,9,9,9,9,117,11,9,20,20,16,9,9,60,20,90,12,116,9,4,20,80,20,0,20,9,20,0,0,0,20,0,20,0,0,7,70,9,0,9,9,0,4,78,11,9,9,0,0,0,0,0,0,0,0,0,0,0,0,0,0,0,0,0,0,0,0,0,0,0,0,0,0,0,0,0,0,0,0,0,0,0,0,0,0,0,0],"split_type":[0,0,0,0,0,0,0,0,0,0,0,0,0,0,0,0,0,0,0,0,0,0,0,0,0,0,0,0,0,0,0,0,0,0,0,0,0,0,0,0,0,0,0,0,0,0,0,0,0,0,0,0,0,0,0,0,0,0,0,0,0,0,0,0,0,0,0,0,0,0,0,0,0,0,0,0,0,0,0,0,0,0,0,0,0,0,0,0,0,0,0],"sum_hessian":[1.7586E4,1.3368E4,4.218E3,3.697E3,9.671E3,2.04E3,2.178E3,3.131E3,5.66E2,9.26E2,8.745E3,9.62E2,1.078E3,1.133E3,1.045E3,3.18E2,2.813E3,2.76E2,2.9E2,1.09E2,8.17E2,8.41E2,7.904E3,1.97E2,7.65E2,6.24E2,4.54E2,5.27E2,6.06E2,4.05E2,6.4E2,1.79E2,1.39E2,1.345E3,1.468E3,4.4E1,2.32E2,1.51E2,1.39E2,4.9E1,6E1,4.9E2,3.27E2,7.64E2,7.7E1,7.637E3,2.67E2,9E1,1.07E2,3.35E2,4.3E2,1.11E2,5.13E2,3.33E2,1.21E2,5.12E2,9.4E1,1.9E2,2.15E2,3.66E2,2.74E2,1.99E2,1.146E3,9.35E2,5.33E2,1.48E2,8.4E1,3E1,1.9E1,2.8E1,3.2E1,1.81E2,3.09E2,1.7E1,3.1E2,4.38E2,3.26E2,6E1,1.7E1,5.63E2,7.074E3,1.49E2,1.18E2,4.4E1,4.6E1,2.4E1,8.3E1,1.46E2,1.89E2,1.52E2,2.78E2],"tree_param":{"num_deleted":"0","num_feature":"118","num_nodes":"91","size_leaf_vector":"1"}},{"base_weights":[2.6245192E-2,-5.197091E0,1.653228E1,-1.7039854E1,-5.6565243E-1,1.2280915E1,2.070777E1,-1.8196123E1,-1.180818E1,-6.3125076E0,2.8915089E-2,9.404277E0,1.4128602E1,2.305066E1,1.8499653E1,-2.1397943E1,-1.7798908E1,-1.3560863E1,-1.00363455E1,-4.7798862E0,-8.301689E0,4.0071768E-1,-3.7277088E0,7.220812E0,1.01203575E1,1.5335093E1,1.2420633E1,1.0839655E0,2.4737423E1,1.9493616E1,8.501444E-1,-1.1253502E0,-9.8834866E-1,-1.642325E1,-1.8231335E1,-6.14988E-1,-7.797554E-1,-8.92072E0,-5.745267E-1,-5.802211E0,-2.7431104E0,-6.8185797E0,-8.74463E0,2.9625058E-1,3.5663044E0,-4.0490923E0,1.264443E0,8.956674E0,5.531027E0,5.865505E-1,9.547388E0,8.314627E-1,7.391986E-1,5.896432E-1,1.3476385E1,1.3041248E0,1.1744512E0,9.4135857E-1,1.0347131E0,-6.829242E-1,-8.318098E-1,-9.2991716E-1,-8.5884136E-1,-1.2781563E-1,-4.4700256E-1,-3.3304286E-1,-2.4415563E-1,-7.208899E-2,-2.0936497E-1,-3.9471996E-1,-2.9186958E-1,-3.3144662E-1,-4.4451553E-1,-5.640319E-2,1.9488651E-2,3.1974915E-1,7.511584E-2,-2.1995406E-1,-1.8464448E-1,-5.5306093E-3,1.3220535E-1,4.5388213E-1,1.892006E-1,2.1115802E-1,3.0540702E-1,4.1149813E-1,5.0354576E-1,1.7824554E-1,6.754894E-1],"categories":[],"categories_nodes":[],"categories_segments":[],"categories_sizes":[],"default_left":[0,0,0,0,0,0,0,0,0,0,0,0,0,0,0,0,0,0,0,0,0,0,0,0,0,0,0,0,0,0,0,0,0,0,0,0,0,0,0,0,0,0,0,0,0,0,0,0,0,0,0,0,0,0,0,0,0,0,0,0,0,0,0,0,0,0,0,0,0,0,0,0,0,0,0,0,0,0,0,0,0,0,0,0,0,0,0,0,0],"id":5,"left_children":[1,3,5,7,9,11,13,15,17,19,21,23,25,27,29,31,33,35,37,39,41,43,45,47,49,51,53,-1,55,57,-1,-1,-1,59,61,-1,-1,63,-1,65,67,69,71,73,75,77,79,81,83,-1,85,-1,-1,-1,87,-1,-1,-1,-1,-1,-1,-1,-1,-1,-1,-1,-1,-1,-1,-1,-1,-1,-1,-1,-1,-1,-1,-1,-1,-1,-1,-1,-1,-1,-1,-1,-1,-1,-1],"loss_changes":[1.5103414E6,7.2986644E5,7.44975E4,2.2415375E4,3.2689602E4,1.09704375E4,1.0556625E4,3.5134375E3,1.9756172E3,2.6949688E3,1.2112475E4,1.2090156E3,2.4265469E3,1.837E3,1.3020938E3,1.5745312E2,1.324625E3,6.7785156E2,4.5233594E2,1.0439463E3,1.9591992E2,2.6084941E3,1.2581523E3,5.5470703E2,4.555586E2,2.819375E2,1.93E2,0E0,1.4803125E2,1.3290625E2,0E0,0E0,0E0,1.6310938E2,4.80875E2,0E0,0E0,1.5048828E0,0E0,2.3421777E2,3.17214E2,5.314209E1,3.229883E1,1.0181286E3,1.4616587E3,7.526074E1,9.1353966E1,2.8223145E1,5.4966553E1,0E0,2.336914E2,0E0,0E0,0E0,1.5074219E1,0E0,0E0,0E0,0E0,0E0,0E0,0E0,0E0,0E0,0E0,0E0,0E0,0E0,0E0,0E0,0E0,0E0,0E0,0E0,0E0,0E0,0E0,0E0,0E0,0E0,0E0,0E0,0E0,0E0,0E0,0E0,0E0,0E0,0E0],"parents":[2147483647,0,0,1,1,2,2,3,3,4,4,5,5,6,6,7,7,8,8,9,9,10,10,11,11,12,12,13,13,14,14,15,15,16,16,17,17,18,18,19,19,20,20,21,21,22,22,23,23,24,24,25,25,26,26,28,28,29,29,33,33,34,34,37,37,39,39,40,40,41,41,42,42,43,43,44,44,45,45,46,46,47,47,48,48,50,50,54,54],"right_children":[2,4,6,8,10,12,14,16,18,20,22,24,26,28,30,32,34,36,38,40,42,44,46,48,50,52,54,-1,56,58,-1,-1,-1,60,62,-1,-1,64,-1,66,68,70,72,74,76,78,80,82,84,-1,86,-1,-1,-1,88,-1,-1,-1,-1,-1,-1,-1,-1,-1,-1,-1,-1,-1,-1,-1,-1,-1,-1,-1,-1,-1,-1,-1,-1,-1,-1,-1,-1,-1,-1,-1,-1,-1,-1],"split_conditions":[1.2601E1,1.1255E1,1.3631E1,1.0802E1,1.1671E1,1.3229E1,1.1519E1,1.0306E1,1.1011E1,2.0137E1,1.9971E4,1.2873E1,2.1634708E1,1.4105E1,1.519E1,1.0243E1,6.964E3,2.1769E1,1.8048E1,1.1575E1,1.9874467E0,1.2357E1,1.0839E3,2.0853E1,2.2832E1,1.6027E1,1.3381E1,1.0839655E0,7.4186E0,1.3918E1,8.501444E-1,-1.1253502E0,-9.8834866E-1,6.108E3,1.0567E1,-6.14988E-1,-7.797554E-1,3.6454E0,-5.745267E-1,1.1423E1,1.2874E1,1.1514E1,2.1026E1,1.1758E1,2.3014E1,1.0789E3,1.2329E1,2.8045E0,1.2691E1,5.865505E-1,1.305E1,8.314627E-1,7.391986E-1,5.896432E-1,2.4792278E-1,1.3041248E0,1.1744512E0,9.4135857E-1,1.0347131E0,-6.829242E-1,-8.318098E-1,-9.2991716E-1,-8.5884136E-1,-1.2781563E-1,-4.4700256E-1,-3.3304286E-1,-2.4415563E-1,-7.208899E-2,-2.0936497E-1,-3.9471996E-1,-2.9186958E-1,-3.3144662E-1,-4.4451553E-1,-5.640319E-2,1.9488651E-2,3.1974915E-1,7.511584E-2,-2.1995406E-1,-1.8464448E-1,-5.5306093E-3,1.3220535E-1,4.5388213E-1,1.892006E-1,2.1115802E-1,3.0540702E-1,4.1149813E-1,5.0354576E-1,1.7824554E-1,6.754894E-1],"split_indices":[9,9,9,9,9,9,2,9,9,2,0,9,20,9,2,9,0,2,2,9,100,9,7,2,2,2,9,0,2,9,0,0,0,0,9,0,0,14,0,9,2,9,2,9,2,7,9,10,9,0,9,0,0,0,101,0,0,0,0,0,0,0,0,0,0,0,0,0,0,0,0,0,0,0,0,0,0,0,0,0,0,0,0,0,0,0,0,0,0],"split_type":[0,0,0,0,0,0,0,0,0,0,0,0,0,0,0,0,0,0,0,0,0,0,0,0,0,0,0,0,0,0,0,0,0,0,0,0,0,0,0,0,0,0,0,0,0,0,0,0,0,0,0,0,0,0,0,0,0,0,0,0,0,0,0,0,0,0,0,0,0,0,0,0,0,0,0,0,0,0,0,0,0,0,0,0,0,0,0,0,0],"sum_hessian":[1.7516E4,1.3306E4,4.21E3,3.74E3,9.566E3,2.088E3,2.122E3,3.061E3,6.79E2,8.96E2,8.67E3,8.19E2,1.269E3,1.025E3,1.097E3,3.32E2,2.729E3,3.38E2,3.41E2,5.08E2,3.88E2,7.89E3,7.8E2,2.05E2,6.14E2,7.39E2,5.3E2,5.73E2,4.52E2,6.52E2,4.45E2,1.9E2,1.42E2,6.62E2,2.067E3,2.13E2,1.25E2,1.97E2,1.44E2,3.37E2,1.71E2,9.3E1,2.95E2,7.639E3,2.51E2,7.33E2,4.7E1,9.9E1,1.06E2,1.56E2,4.58E2,2.12E2,5.27E2,3.4E2,1.9E2,2.08E2,2.44E2,4.3E2,2.22E2,5.2E1,6.1E2,1.521E3,5.46E2,1E0,1.96E2,1.71E2,1.66E2,9.1E1,8E1,4.1E1,5.2E1,2.2E1,2.73E2,4.7E2,7.169E3,1.05E2,1.46E2,3.64E2,3.69E2,2.4E1,2.3E1,9.6E1,3E0,3.5E1,7.1E1,1.35E2,3.23E2,1E0,1.89E2],"tree_param":{"num_deleted":"0","num_feature":"118","num_nodes":"89","size_leaf_vector":"1"}},{"base_weights":[2.5074573E-2,-5.0225377E0,1.5568917E1,-1.604624E1,-5.1469314E-1,1.1200138E1,1.9477552E1,-1.7213352E1,-1.0632893E1,-5.714882E0,-2.7360054E-2,8.649067E0,1.31785145E1,1.72479E1,2.1799719E1,-1.943422E1,-1.6700333E1,-1.2529477E1,-9.319559E0,-4.4597564E0,-7.872037E0,3.5034746E-1,-3.6760182E0,6.126445E0,9.469653E0,1.1928321E1,1.42793E1,9.2309487E-1,1.6002344E1,1.2132803E0,2.0772243E1,-1.0728154E0,-1.849643E1,-1.5390413E1,-1.7076159E1,-5.7500094E-1,-7.23237E-1,-8.283286E0,-1.0590606E1,-4.9585986E0,-1.1076812E0,-6.520126E0,-8.245006E0,4.803383E0,3.0789798E-1,-3.8679118E0,8.2872367E-1,7.5233727E0,4.1293483E0,1.095764E1,8.855468E0,6.5596825E-1,5.639907E-1,7.98117E-1,1.3831811E1,8.72639E-1,7.762072E-1,1.0755502E0,9.784117E-1,-1.0650096E0,-9.046753E-1,-6.5137655E-1,-7.8245723E-1,-8.633739E-1,-7.475187E-1,-4.4541335E-1,-3.737877E-1,-5.8654565E-1,-5.0066906E-1,-2.9307055E-1,-2.0539503E-1,-1.4141788E-2,-1.8853758E-1,-3.4599176E-1,-2.3099259E-1,-4.1314325E-1,-1.0432263E-1,3.027845E-1,1.8238646E-1,-5.669437E-2,2.0011874E-2,-2.1356218E-1,-1.7670263E-1,3.280449E-3,8.954809E-2,4.590269E-1,3.455865E-1,1.5382639E-1,2.4428736E-1,5.0235647E-1,5.835729E-1,3.576013E-1,4.6871993E-1,7.032687E-1,6.0644245E-1],"categories":[],"categories_nodes":[],"categories_segments":[],"categories_sizes":[],"default_left":[0,0,0,0,0,0,0,0,0,0,0,0,0,0,0,0,0,0,0,0,0,0,0,0,0,0,0,0,0,0,0,0,0,0,0,0,0,0,0,0,0,0,0,0,0,0,0,0,0,0,0,0,0,0,0,0,0,0,0,0,0,0,0,0,0,0,0,0,0,0,0,0,0,0,0,0,0,0,0,0,0,0,0,0,0,0,0,0,0,0,0,0,0,0,0],"id":6,"left_children":[1,3,5,7,9,11,13,15,17,19,21,23,25,27,29,31,33,35,37,39,41,43,45,47,49,51,53,-1,55,-1,57,-1,59,61,63,-1,-1,65,67,69,71,73,75,77,79,81,83,85,87,89,91,-1,-1,-1,93,-1,-1,-1,-1,-1,-1,-1,-1,-1,-1,-1,-1,-1,-1,-1,-1,-1,-1,-1,-1,-1,-1,-1,-1,-1,-1,-1,-1,-1,-1,-1,-1,-1,-1,-1,-1,-1,-1,-1,-1],"loss_changes":[1.3859048E6,6.626001E5,7.372075E4,2.4267562E4,2.3986277E4,1.0217172E4,1.14496875E4,3.30075E3,1.5994297E3,2.1606758E3,1.1928966E4,1.7987969E3,1.4136719E3,1.4737188E3,2.321E3,7.2384375E2,1.01325E3,3.895E2,4.53625E2,8.5566797E2,9.599414E1,1.4812651E3,7.05124E2,5.910576E2,5.1984766E2,2.7296875E2,2.3636719E2,0E0,1.3482812E2,0E0,2.853125E2,0E0,7.8921875E1,1.55625E2,5.573125E2,0E0,0E0,4.9989258E1,1.6699219E0,3.1999512E2,1.4830374E2,2.0440918E1,7.948242E0,8.500574E1,1.0350363E3,8.980176E1,2.4848629E1,6.8313965E1,5.9825928E1,8.173828E0,3.5990625E2,0E0,0E0,0E0,2.3109375E1,0E0,0E0,0E0,0E0,0E0,0E0,0E0,0E0,0E0,0E0,0E0,0E0,0E0,0E0,0E0,0E0,0E0,0E0,0E0,0E0,0E0,0E0,0E0,0E0,0E0,0E0,0E0,0E0,0E0,0E0,0E0,0E0,0E0,0E0,0E0,0E0,0E0,0E0,0E0,0E0],"parents":[2147483647,0,0,1,1,2,2,3,3,4,4,5,5,6,6,7,7,8,8,9,9,10,10,11,11,12,12,13,13,14,14,15,15,16,16,17,17,18,18,19,19,20,20,21,21,22,22,23,23,24,24,25,25,26,26,28,28,30,30,32,32,33,33,34,34,37,37,38,38,39,39,40,40,41,41,42,42,43,43,44,44,45,45,46,46,47,47,48,48,49,49,50,50,54,54],"right_children":[2,4,6,8,10,12,14,16,18,20,22,24,26,28,30,32,34,36,38,40,42,44,46,48,50,52,54,-1,56,-1,58,-1,60,62,64,-1,-1,66,68,70,72,74,76,78,80,82,84,86,88,90,92,-1,-1,-1,94,-1,-1,-1,-1,-1,-1,-1,-1,-1,-1,-1,-1,-1,-1,-1,-1,-1,-1,-1,-1,-1,-1,-1,-1,-1,-1,-1,-1,-1,-1,-1,-1,-1,-1,-1,-1,-1,-1,-1,-1],"split_conditions":[1.2508E1,1.1298E1,1.359E1,1.083E1,1.1671E1,1.3229E1,1.3918E1,1.0367E1,1.1011E1,2.1474E1,1.9971E4,1.2788E1,1.3405E1,1.4526E1,7.839E0,1.0243E1,6.792E3,2.1868E1,1.8048E1,1.0806E3,1.9874467E0,2.422E3,1.215E1,2.2521E1,2.2913E1,2.2429E1,1.6027E1,9.2309487E-1,5.333383E2,1.2132803E0,1.0655583E1,-1.0728154E0,1.0470167E3,6.108E3,1.0712E1,-5.7500094E-1,-7.23237E-1,1.1169E1,1.111E1,1.1485E1,1.2874E1,1.1627E1,2.9731E1,8E0,1.1758E1,-2.572991E0,1.2329E1,1.0868E1,2.63585E1,1.3001E1,1.3001E1,6.5596825E-1,5.639907E-1,7.98117E-1,2.6593E1,8.72639E-1,7.762072E-1,1.0755502E0,9.784117E-1,-1.0650096E0,-9.046753E-1,-6.5137655E-1,-7.8245723E-1,-8.633739E-1,-7.475187E-1,-4.4541335E-1,-3.737877E-1,-5.8654565E-1,-5.0066906E-1,-2.9307055E-1,-2.0539503E-1,-1.4141788E-2,-1.8853758E-1,-3.4599176E-1,-2.3099259E-1,-4.1314325E-1,-1.0432263E-1,3.027845E-1,1.8238646E-1,-5.669437E-2,2.0011874E-2,-2.1356218E-1,-1.7670263E-1,3.280449E-3,8.954809E-2,4.590269E-1,3.455865E-1,1.5382639E-1,2.4428736E-1,5.0235647E-1,5.835729E-1,3.576013E-1,4.6871993E-1,7.032687E-1,6.0644245E-1],"split_indices":[9,9,9,9,9,9,9,9,9,2,0,9,9,2,2,9,0,2,2,7,100,0,9,2,2,2,2,0,80,0,18,0,70,0,9,0,0,9,9,9,2,9,58,115,9,116,9,2,60,9,9,0,0,0,2,0,0,0,0,0,0,0,0,0,0,0,0,0,0,0,0,0,0,0,0,0,0,0,0,0,0,0,0,0,0,0,0,0,0,0,0,0,0,0,0],"split_type":[0,0,0,0,0,0,0,0,0,0,0,0,0,0,0,0,0,0,0,0,0,0,0,0,0,0,0,0,0,0,0,0,0,0,0,0,0,0,0,0,0,0,0,0,0,0,0,0,0,0,0,0,0,0,0,0,0,0,0,0,0,0,0,0,0,0,0,0,0,0,0,0,0,0,0,0,0,0,0,0,0,0,0,0,0,0,0,0,0,0,0,0,0,0,0],"sum_hessian":[1.7662E4,1.3333E4,4.329E3,3.869E3,9.464E3,2.046E3,2.283E3,3.181E3,6.88E2,8.1E2,8.654E3,8.96E2,1.15E3,1.169E3,1.114E3,5.9E2,2.591E3,2.78E2,4.1E2,5.14E2,2.96E2,7.843E3,8.11E2,2.22E2,6.74E2,5.44E2,6.06E2,5.85E2,5.84E2,3.21E2,7.93E2,1.8E2,4.1E2,5.87E2,2.004E3,1.86E2,9.2E1,2.3E2,1.8E2,4.47E2,6.7E1,6.8E1,2.28E2,7.3E1,7.77E3,7.78E2,3.3E1,1.29E2,9.3E1,1.92E2,4.82E2,1.85E2,3.59E2,1.2E2,4.86E2,1.36E2,4.48E2,4.81E2,3.12E2,4.5E1,3.65E2,6.3E1,5.24E2,1.832E3,1.72E2,1.24E2,1.06E2,5.4E1,1.26E2,2.14E2,2.33E2,5.2E1,1.5E1,5.4E1,1.4E1,2.27E2,1E0,3.3E1,4E1,4.67E2,7.303E3,3.47E2,4.31E2,1.9E1,1.4E1,3.1E1,9.8E1,4.1E1,5.2E1,9.1E1,1.01E2,1.16E2,3.66E2,4.21E2,6.5E1],"tree_param":{"num_deleted":"0","num_feature":"118","num_nodes":"95","size_leaf_vector":"1"}},{"base_weights":[3.8098218E-3,-4.7347646E0,1.4953138E1,-1.5419415E1,-4.9909154E-1,1.1156092E1,1.8696463E1,-1.6431047E1,-1.0694565E1,-5.655085E0,2.325865E-2,9.1286745E0,1.3237687E1,2.0669268E1,1.659633E1,-1.0236154E0,-1.6166069E1,-1.226279E1,-9.103778E0,-4.365034E0,-7.546732E0,-3.3312073E0,3.82632E-1,7.039196E0,9.849853E0,1.3994884E1,1.1868475E1,1.9835976E1,1.1583313E0,1.5577928E1,1.7612135E1,-1.7042538E1,-1.5525681E1,-5.54369E-1,-7.0064753E-1,-7.866885E0,-1.030097E1,-5.188371E0,-2.5837593E0,-8.108668E0,-6.402287E0,-3.6885157E0,8.6996555E-2,2.702097E-1,2.9990234E0,8.961625E0,5.730775E0,1.0965451E1,9.016019E0,7.549159E-1,6.763538E-1,5.1533145E-1,1.21467E1,1.03456E0,9.528799E-1,7.866392E-1,6.443998E-1,1.7759396E1,6.308355E-1,-9.993612E-1,-8.4445107E-1,-6.947395E-1,-7.883564E-1,-4.2776033E-1,-3.6271787E-1,-4.8071256E-1,-5.728772E-1,-2.9793414E-1,-2.1787997E-1,-7.0579335E-2,-1.9843543E-1,-2.4891977E-1,-4.0917975E-1,-2.522149E-1,-3.710749E-1,-1.9848768E-1,-1.6377842E-1,-4.6380054E-2,7.800693E-2,7.5810835E-2,9.023423E-3,2.944736E-1,6.6736184E-2,4.06245E-1,5.1113856E-1,2.545635E-1,3.4702358E-1,6.3998157E-1,5.222264E-1,4.223363E-1,4.8512396E-1,1.7412491E-1,6.0817075E-1,9.244098E-1,8.4433997E-1],"categories":[],"categories_nodes":[],"categories_segments":[],"categories_sizes":[],"default_left":[0,0,0,0,0,0,0,0,0,0,0,0,0,0,0,0,0,0,0,0,0,0,0,0,0,0,0,0,0,0,0,0,0,0,0,0,0,0,0,0,0,0,0,0,0,0,0,0,0,0,0,0,0,0,0,0,0,0,0,0,0,0,0,0,0,0,0,0,0,0,0,0,0,0,0,0,0,0,0,0,0,0,0,0,0,0,0,0,0,0,0,0,0,0,0],"id":7,"left_children":[1,3,5,7,9,11,13,15,17,19,21,23,25,27,29,-1,31,33,35,37,39,41,43,45,47,49,51,53,-1,55,57,59,61,-1,-1,63,65,67,69,71,73,75,77,79,81,83,85,87,89,-1,-1,-1,91,-1,-1,-1,-1,93,-1,-1,-1,-1,-1,-1,-1,-1,-1,-1,-1,-1,-1,-1,-1,-1,-1,-1,-1,-1,-1,-1,-1,-1,-1,-1,-1,-1,-1,-1,-1,-1,-1,-1,-1,-1,-1],"loss_changes":[1.2376195E6,6.003675E5,5.9559438E4,1.7825062E4,2.5588549E4,8.699516E3,8.4239375E3,2.988625E3,1.5523359E3,2.0998984E3,1.0402377E4,1.5309766E3,9.0071875E2,1.8025312E3,7.911875E2,0E0,1.3709375E3,5.2966797E2,4.150293E2,7.521543E2,1.7510352E2,1.02015137E3,2.2917227E3,6.4287695E2,6.3321875E2,1.3490625E2,3.6898438E1,1.5284375E2,0E0,1.509375E1,1.4964062E2,2.1396875E2,4.4840625E2,0E0,0E0,9.19043E0,2.2482422E1,2.0185742E2,2.655055E2,1.3907227E1,1.3003711E2,7.47959E1,1.21018906E2,8.3545575E2,1.5363328E3,3.30166E1,9.385693E1,1.8353125E2,9.625E1,0E0,0E0,0E0,2.6757812E0,0E0,0E0,0E0,0E0,4.6875E-2,0E0,0E0,0E0,0E0,0E0,0E0,0E0,0E0,0E0,0E0,0E0,0E0,0E0,0E0,0E0,0E0,0E0,0E0,0E0,0E0,0E0,0E0,0E0,0E0,0E0,0E0,0E0,0E0,0E0,0E0,0E0,0E0,0E0,0E0,0E0,0E0,0E0],"parents":[2147483647,0,0,1,1,2,2,3,3,4,4,5,5,6,6,7,7,8,8,9,9,10,10,11,11,12,12,13,13,14,14,16,16,17,17,18,18,19,19,20,20,21,21,22,22,23,23,24,24,25,25,26,26,27,27,29,29,30,30,31,31,32,32,35,35,36,36,37,37,38,38,39,39,40,40,41,41,42,42,43,43,44,44,45,45,46,46,47,47,48,48,52,52,57,57],"right_children":[2,4,6,8,10,12,14,16,18,20,22,24,26,28,30,-1,32,34,36,38,40,42,44,46,48,50,52,54,-1,56,58,60,62,-1,-1,64,66,68,70,72,74,76,78,80,82,84,86,88,90,-1,-1,-1,92,-1,-1,-1,-1,94,-1,-1,-1,-1,-1,-1,-1,-1,-1,-1,-1,-1,-1,-1,-1,-1,-1,-1,-1,-1,-1,-1,-1,-1,-1,-1,-1,-1,-1,-1,-1,-1,-1,-1,-1,-1,-1],"split_conditions":[1.2601E1,1.1255E1,1.3631E1,1.0802E1,1.1671E1,1.3313E1,1.1839E1,1.0243E1,1.1011E1,2.0508E1,5.6018E1,1.295E1,2.1373798E1,1.4195E1,1.3808E1,-1.0236154E0,1.0475E1,2.1769E1,1.5684E1,1.1575E1,1.1543E1,2.368656E0,1.2329E1,1.8126E1,2.4730862E1,1.6027E1,8.1160855E-1,9.5941E0,1.1583313E0,2.2731E1,2.1205E1,1.9119375E1,6.364E3,-5.54369E-1,-7.0064753E-1,1.111E1,2.3257E1,1.1423E1,1.3124E1,5.764E3,2.4803E1,1.1868E1,1.2207E1,3.022E3,2.3014E1,5.4476E2,2.769014E1,1.5089E1,1.3175E1,7.549159E-1,6.763538E-1,5.1533145E-1,3.195426E-1,1.03456E0,9.528799E-1,7.866392E-1,6.443998E-1,1.31548E1,6.308355E-1,-9.993612E-1,-8.4445107E-1,-6.947395E-1,-7.883564E-1,-4.2776033E-1,-3.6271787E-1,-4.8071256E-1,-5.728772E-1,-2.9793414E-1,-2.1787997E-1,-7.0579335E-2,-1.9843543E-1,-2.4891977E-1,-4.0917975E-1,-2.522149E-1,-3.710749E-1,-1.9848768E-1,-1.6377842E-1,-4.6380054E-2,7.800693E-2,7.5810835E-2,9.023423E-3,2.944736E-1,6.6736184E-2,4.06245E-1,5.1113856E-1,2.545635E-1,3.4702358E-1,6.3998157E-1,5.222264E-1,4.223363E-1,4.8512396E-1,1.7412491E-1,6.0817075E-1,9.244098E-1,8.4433997E-1],"split_indices":[9,9,9,9,9,9,2,9,9,2,11,9,20,9,9,0,9,2,2,9,9,116,9,2,20,2,100,2,0,2,2,60,0,0,0,9,2,9,2,0,2,9,9,0,2,8,58,2,9,0,0,0,61,0,0,0,0,20,0,0,0,0,0,0,0,0,0,0,0,0,0,0,0,0,0,0,0,0,0,0,0,0,0,0,0,0,0,0,0,0,0,0,0,0,0],"split_type":[0,0,0,0,0,0,0,0,0,0,0,0,0,0,0,0,0,0,0,0,0,0,0,0,0,0,0,0,0,0,0,0,0,0,0,0,0,0,0,0,0,0,0,0,0,0,0,0,0,0,0,0,0,0,0,0,0,0,0,0,0,0,0,0,0,0,0,0,0,0,0,0,0,0,0,0,0,0,0,0,0,0,0,0,0,0,0,0,0,0,0,0,0,0,0],"sum_hessian":[1.7469E4,1.3265E4,4.204E3,3.765E3,9.5E3,2.089E3,2.115E3,3.099E3,6.66E2,8.73E2,8.627E3,1.061E3,1.028E3,1.086E3,1.029E3,1.86E2,2.913E3,3.32E2,3.34E2,5.21E2,3.52E2,8.34E2,7.793E3,2.75E2,7.86E2,6.56E2,3.72E2,8.21E2,2.65E2,5.22E2,5.07E2,1.219E3,1.694E3,2.03E2,1.29E2,1.68E2,1.66E2,3.55E2,1.66E2,2.32E2,1.2E2,7.55E2,7.9E1,7.473E3,3.2E2,1.09E2,1.66E2,3.31E2,4.55E2,1.86E2,4.7E2,6.2E1,3.1E2,3.79E2,4.42E2,4.89E2,3.3E1,4.9E2,1.7E1,5.4E1,1.165E3,2.26E2,1.468E3,7.3E1,9.5E1,1.1E2,5.6E1,1.81E2,1.74E2,9.1E1,7.5E1,7E0,2.25E2,5.4E1,6.6E1,4.44E2,3.11E2,4.7E1,3.2E1,5.01E2,6.972E3,1.16E2,2.04E2,7E1,3.9E1,1.12E2,5.4E1,6.8E1,2.63E2,2.56E2,1.99E2,1E0,3.09E2,2.56E2,2.34E2],"tree_param":{"num_deleted":"0","num_feature":"118","num_nodes":"95","size_leaf_vector":"1"}},{"base_weights":[3.1739818E-3,-4.4703264E0,1.4192441E1,-1.46539755E1,-4.844015E-1,1.0204615E1,1.7441902E1,-1.5633237E1,-1.0124035E1,-5.3840413E0,1.5342021E-2,8.12992E0,1.1794725E1,1.5452159E1,1.9630863E1,-1.8180143E1,-1.5258478E1,-1.1518742E1,-8.656607E0,-4.082619E0,-7.108555E0,3.4711772E-1,-3.2594109E0,6.187403E0,8.7498255E0,1.2625871E1,1.0557175E1,8.3308136E-1,1.4365915E1,1.0969713E0,1.872278E1,-9.676652E-1,-8.4052175E-1,-1.4081555E1,-1.5641709E1,-1.0492934E1,-6.582322E-1,-7.690198E0,-9.799597E0,-4.92075E0,-2.3673224E0,-7.687572E0,-6.056907E0,2.57241E-1,3.1250107E0,-3.529775E0,8.774591E-1,7.757673E0,4.618035E0,5.16895E-1,8.263817E0,6.830623E-1,1.2142864E1,4.96327E-1,5.7204986E-1,7.8764856E-1,1.3957787E1,9.6640533E-1,8.801901E-1,-5.8611745E-1,-7.121994E-1,-7.885679E-1,-6.822442E-1,-3.6663753E-1,-5.3056604E-1,-2.6150736E-1,-3.9081928E-1,-5.239708E-1,-4.4346896E-1,-2.9449257E-1,-2.1663296E-1,-4.6130277E-2,-1.6897602E-1,-3.5173598E-1,-4.072344E-1,-2.4555564E-1,-3.5354182E-1,1.5905316E-1,1.0909591E-2,2.6524863E-1,5.364575E-2,-2.0487717E-1,-1.6740952E-1,1.0675106E-2,1.6060396E-1,4.5004532E-1,3.5201275E-1,1.717167E-1,2.5719568E-1,3.5284245E-1,4.3541452E-1,5.595531E-1,6.294346E-1,7.1192455E-1,6.280532E-1],"categories":[],"categories_nodes":[],"categories_segments":[],"categories_sizes":[],"default_left":[0,0,0,0,0,0,0,0,0,0,0,0,0,0,0,0,0,0,0,0,0,0,0,0,0,0,0,0,0,0,0,0,0,0,0,0,0,0,0,0,0,0,0,0,0,0,0,0,0,0,0,0,0,0,0,0,0,0,0,0,0,0,0,0,0,0,0,0,0,0,0,0,0,0,0,0,0,0,0,0,0,0,0,0,0,0,0,0,0,0,0,0,0,0,0],"id":8,"left_children":[1,3,5,7,9,11,13,15,17,19,21,23,25,27,29,31,33,35,37,39,41,43,45,47,49,51,53,-1,55,-1,57,-1,-1,59,61,63,-1,65,67,69,71,73,75,77,79,81,83,85,87,-1,89,-1,91,-1,-1,-1,93,-1,-1,-1,-1,-1,-1,-1,-1,-1,-1,-1,-1,-1,-1,-1,-1,-1,-1,-1,-1,-1,-1,-1,-1,-1,-1,-1,-1,-1,-1,-1,-1,-1,-1,-1,-1,-1,-1],"loss_changes":[1.1156488E6,5.424139E5,5.4415312E4,1.6516688E4,2.3518531E4,6.1524062E3,9.8013125E3,2.6709375E3,1.2735781E3,1.9661797E3,9.472008E3,9.393086E2,9.6728125E2,1.3634375E3,1.8973438E3,3.0296094E2,9.97125E2,4.3760156E2,2.9025977E2,7.2011035E2,1.8543555E2,1.9755674E3,9.0010254E2,4.6443408E2,3.9541016E2,1.5166406E2,1.2944531E2,0E0,1.4807812E2,0E0,1.9959375E2,0E0,0E0,9.0921875E1,3.0953125E2,2.6230469E0,0E0,1.6238281E1,6.464844E-1,1.688252E2,2.4401746E2,1.4924805E1,1.2791992E2,8.748977E2,1.1037336E3,6.3914062E1,7.681857E1,2.582373E1,4.7072266E1,0E0,1.97125E2,0E0,4.6683594E1,0E0,0E0,0E0,2.15E1,0E0,0E0,0E0,0E0,0E0,0E0,0E0,0E0,0E0,0E0,0E0,0E0,0E0,0E0,0E0,0E0,0E0,0E0,0E0,0E0,0E0,0E0,0E0,0E0,0E0,0E0,0E0,0E0,0E0,0E0,0E0,0E0,0E0,0E0,0E0,0E0,0E0,0E0],"parents":[2147483647,0,0,1,1,2,2,3,3,4,4,5,5,6,6,7,7,8,8,9,9,10,10,11,11,12,12,13,13,14,14,15,15,16,16,17,17,18,18,19,19,20,20,21,21,22,22,23,23,24,24,25,25,26,26,28,28,30,30,33,33,34,34,35,35,37,37,38,38,39,39,40,40,41,41,42,42,43,43,44,44,45,45,46,46,47,47,48,48,50,50,52,52,56,56],"right_children":[2,4,6,8,10,12,14,16,18,20,22,24,26,28,30,32,34,36,38,40,42,44,46,48,50,52,54,-1,56,-1,58,-1,-1,60,62,64,-1,66,68,70,72,74,76,78,80,82,84,86,88,-1,90,-1,92,-1,-1,-1,94,-1,-1,-1,-1,-1,-1,-1,-1,-1,-1,-1,-1,-1,-1,-1,-1,-1,-1,-1,-1,-1,-1,-1,-1,-1,-1,-1,-1,-1,-1,-1,-1,-1,-1,-1,-1,-1,-1],"split_conditions":[1.2601E1,1.1255E1,1.3572E1,1.0802E1,1.1671E1,1.3229E1,1.3918E1,1.0324E1,1.1011E1,2.0137E1,1.9971E4,1.2873E1,2.2558666E1,1.4526E1,7.839E0,1.8905E1,6.964E3,2.1769E1,1.7555E1,1.1575E1,1.1543E1,1.2357E1,1.0835E3,2.1474E1,2.1388E1,1.7003E1,1.3312E1,8.3308136E-1,5.333175E2,1.0969713E0,1.0939E1,-9.676652E-1,-8.4052175E-1,6.108E3,1.0712E1,5.936E3,-6.582322E-1,1.0001871E3,-1.2305754E1,1.1386E1,1.0774E1,2.4313E1,2.5815E1,2.508E3,2.5213E1,6.4148E1,1.0893E3,1.0242E1,1.2691E1,5.16895E-1,1.305E1,6.830623E-1,1.3405E1,4.96327E-1,5.7204986E-1,7.8764856E-1,2.1868E1,9.6640533E-1,8.801901E-1,-5.8611745E-1,-7.121994E-1,-7.885679E-1,-6.822442E-1,-3.6663753E-1,-5.3056604E-1,-2.6150736E-1,-3.9081928E-1,-5.239708E-1,-4.4346896E-1,-2.9449257E-1,-2.1663296E-1,-4.6130277E-2,-1.6897602E-1,-3.5173598E-1,-4.072344E-1,-2.4555564E-1,-3.5354182E-1,1.5905316E-1,1.0909591E-2,2.6524863E-1,5.364575E-2,-2.0487717E-1,-1.6740952E-1,1.0675106E-2,1.6060396E-1,4.5004532E-1,3.5201275E-1,1.717167E-1,2.5719568E-1,3.5284245E-1,4.3541452E-1,5.595531E-1,6.294346E-1,7.1192455E-1,6.280532E-1],"split_indices":[9,9,9,9,9,9,9,9,9,2,0,9,18,2,2,6,0,2,2,9,9,9,7,2,2,2,86,0,78,0,12,0,0,0,9,0,0,30,116,9,2,2,2,0,2,4,7,2,9,0,9,0,9,0,0,0,2,0,0,0,0,0,0,0,0,0,0,0,0,0,0,0,0,0,0,0,0,0,0,0,0,0,0,0,0,0,0,0,0,0,0,0,0,0,0],"split_type":[0,0,0,0,0,0,0,0,0,0,0,0,0,0,0,0,0,0,0,0,0,0,0,0,0,0,0,0,0,0,0,0,0,0,0,0,0,0,0,0,0,0,0,0,0,0,0,0,0,0,0,0,0,0,0,0,0,0,0,0,0,0,0,0,0,0,0,0,0,0,0,0,0,0,0,0,0,0,0,0,0,0,0,0,0,0,0,0,0,0,0,0,0,0,0],"sum_hessian":[1.7574E4,1.3362E4,4.212E3,3.758E3,9.604E3,1.893E3,2.319E3,3.088E3,6.7E2,8.88E2,8.716E3,8.24E2,1.069E3,1.219E3,1.1E3,3.9E2,2.698E3,3.4E2,3.3E2,5.08E2,3.8E2,7.915E3,8.01E2,2.02E2,6.22E2,6.34E2,4.35E2,5.7E2,6.49E2,3.04E2,7.96E2,2.03E2,1.87E2,6.72E2,2.026E3,2.14E2,1.26E2,1.83E2,1.47E2,3.4E2,1.68E2,2.41E2,1.39E2,7.668E3,2.47E2,7.52E2,4.9E1,9.9E1,1.03E2,1.41E2,4.81E2,1.93E2,4.41E2,2.61E2,1.74E2,1.39E2,5.1E2,5.06E2,2.9E2,4.8E1,6.24E2,1.896E3,1.3E2,1E1,2.04E2,1.1E1,1.72E2,7.9E1,6.8E1,1.25E2,2.15E2,7E1,9.8E1,1.06E2,1.35E2,6.8E1,7.1E1,1E2,7.568E3,1.19E2,1.28E2,1.77E2,5.75E2,3.9E1,1E1,3.2E1,6.7E1,3.4E1,6.9E1,1.34E2,3.47E2,1.49E2,2.92E2,4.17E2,9.3E1],"tree_param":{"num_deleted":"0","num_feature":"118","num_nodes":"95","size_leaf_vector":"1"}},{"base_weights":[-3.7161537E-2,-4.3049326E0,1.3369795E1,-1.40423975E1,-5.4502493E-1,1.0105995E1,1.71279E1,-1.4787708E1,-9.692466E0,-5.1447E0,6.537365E-4,7.762411E0,1.1926984E1,1.5722201E1,1.9320744E1,-1.6177855E1,-1.4138178E1,-1.0710441E1,-8.560225E0,-1.5874833E0,-5.6960635E0,3.0129367E-1,-3.1300802E0,5.9520316E0,8.668182E0,1.27902565E1,1.0446123E1,1.6587353E1,1.4330998E1,1.0235077E0,9.068039E-1,-9.2475885E-1,-1.5611451E1,-1.2495177E1,-1.4346361E1,-6.2998366E-1,-1.0156582E1,-7.5785155E0,-9.491575E0,-3.108559E0,-1.4998944E-1,-4.8811216E0,-6.8729725E0,4.294981E0,2.642E-1,-3.3274548E0,2.8571573E-1,5.0656867E0,7.2767467E0,9.78109E0,8.086969E0,7.298968E-1,1.2505591E1,9.761324E0,5.551978E-1,7.671028E-1,8.469961E-1,7.2728795E-1,6.096669E-1,-9.2222404E-1,-7.702399E-1,-4.9645334E-1,-6.3491726E-1,-7.2802544E-1,-6.689412E-1,-4.7296214E-1,-5.670292E-1,-9.971485E-2,-3.802856E-1,-4.8057362E-1,-2.695906E-1,-2.099819E-1,-1.08268835E-1,4.5542484E-3,-6.814759E-2,-3.0247036E-1,-1.9803944E-1,-1.168769E-1,-3.4849805E-1,2.6717487E-1,1.6612902E-1,-2.9827794E-2,1.8981664E-2,-1.8229924E-1,-1.5287204E-1,-4.697733E-2,5.0060757E-2,1.9532554E-1,3.1045693E-1,3.2446203E-1,4.352138E-1,8.2681656E-2,4.9051914E-1,3.8081917E-1,4.405322E-1,5.848054E-1,6.42288E-1,4.896648E-1,1.980217E-1],"categories":[],"categories_nodes":[],"categories_segments":[],"categories_sizes":[],"default_left":[0,0,0,0,0,0,0,0,0,0,0,0,0,0,0,0,0,0,0,0,0,0,0,0,0,0,0,0,0,0,0,0,0,0,0,0,0,0,0,0,0,0,0,0,0,0,0,0,0,0,0,0,0,0,0,0,0,0,0,0,0,0,0,0,0,0,0,0,0,0,0,0,0,0,0,0,0,0,0,0,0,0,0,0,0,0,0,0,0,0,0,0,0,0,0,0,0,0,0],"id":9,"left_children":[1,3,5,7,9,11,13,15,17,19,21,23,25,27,29,31,33,35,37,39,41,43,45,47,49,51,53,55,57,-1,-1,-1,59,61,63,-1,65,67,69,71,73,75,77,79,81,83,85,87,89,91,93,-1,95,97,-1,-1,-1,-1,-1,-1,-1,-1,-1,-1,-1,-1,-1,-1,-1,-1,-1,-1,-1,-1,-1,-1,-1,-1,-1,-1,-1,-1,-1,-1,-1,-1,-1,-1,-1,-1,-1,-1,-1,-1,-1,-1,-1,-1,-1],"loss_changes":[1.0035436E6,4.8707794E5,5.1772188E4,1.18716875E4,2.4092959E4,9.590703E3,5.7594375E3,2.6264375E3,5.3647656E2,1.9875801E3,8.078524E3,1.5799961E3,1.4963281E3,1.2114062E3,6.690625E2,1.0237969E3,5.6059375E2,1.681543E2,1.6853516E2,3.0127588E2,8.1143164E2,1.1589531E3,5.0794238E2,3.5648047E2,3.4846094E2,2.29625E2,1.0558984E2,6.325E1,3.7945312E1,0E0,0E0,0E0,1.9007812E2,4.78125E0,2.015625E2,0E0,7.766992E1,5.03125E0,1.2569336E1,5.985498E1,2.1177967E1,5.3945215E2,1.411836E2,5.5655396E1,7.712589E2,5.0003906E1,3.776101E1,2.461377E2,9.190869E1,3.663086E1,8.273828E1,0E0,4.2242188E1,5.9121094E0,0E0,0E0,0E0,0E0,0E0,0E0,0E0,0E0,0E0,0E0,0E0,0E0,0E0,0E0,0E0,0E0,0E0,0E0,0E0,0E0,0E0,0E0,0E0,0E0,0E0,0E0,0E0,0E0,0E0,0E0,0E0,0E0,0E0,0E0,0E0,0E0,0E0,0E0,0E0,0E0,0E0,0E0,0E0,0E0,0E0],"parents":[2147483647,0,0,1,1,2,2,3,3,4,4,5,5,6,6,7,7,8,8,9,9,10,10,11,11,12,12,13,13,14,14,15,15,16,16,17,17,18,18,19,19,20,20,21,21,22,22,23,23,24,24,25,25,26,26,27,27,28,28,32,32,33,33,34,34,36,36,37,37,38,38,39,39,40,40,41,41,42,42,43,43,44,44,45,45,46,46,47,47,48,48,49,49,50,50,52,52,53,53],"right_children":[2,4,6,8,10,12,14,16,18,20,22,24,26,28,30,32,34,36,38,40,42,44,46,48,50,52,54,56,58,-1,-1,-1,60,62,64,-1,66,68,70,72,74,76,78,80,82,84,86,88,90,92,94,-1,96,98,-1,-1,-1,-1,-1,-1,-1,-1,-1,-1,-1,-1,-1,-1,-1,-1,-1,-1,-1,-1,-1,-1,-1,-1,-1,-1,-1,-1,-1,-1,-1,-1,-1,-1,-1,-1,-1,-1,-1,-1,-1,-1,-1,-1,-1],"split_conditions":[1.2508E1,1.1212E1,1.3671E1,1.083E1,1.1684E1,1.327E1,1.4008E1,1.0425E1,1.1011E1,-2.0386498E0,1.9971E4,1.295E1,2.1373798E1,1.3925709E1,8.4606E0,1.0243E1,6.364E3,2.0650375E1,1.6690332E1,1.0846833E3,2.1196E1,2.422E3,2.368656E0,8.279E1,2.4248833E1,5.33995E2,1.3381E1,1.3808E1,1.8005709E1,1.0235077E0,9.068039E-1,-9.2475885E-1,1.9119375E1,9E0,1.0679E1,-6.2998366E-1,2.102979E1,5.764E3,7.2754407E0,2.3460875E1,-2.2481296E0,1.1423E1,5.68E3,8E0,1.1805E1,-2.572991E0,1.2184E1,1.2683333E1,7.522E1,4.3484E1,1.3175E1,7.298968E-1,1.3467E1,6.4015183E0,5.551978E-1,7.671028E-1,8.469961E-1,7.2728795E-1,6.096669E-1,-9.2222404E-1,-7.702399E-1,-4.9645334E-1,-6.3491726E-1,-7.2802544E-1,-6.689412E-1,-4.7296214E-1,-5.670292E-1,-9.971485E-2,-3.802856E-1,-4.8057362E-1,-2.695906E-1,-2.099819E-1,-1.08268835E-1,4.5542484E-3,-6.814759E-2,-3.0247036E-1,-1.9803944E-1,-1.168769E-1,-3.4849805E-1,2.6717487E-1,1.6612902E-1,-2.9827794E-2,1.8981664E-2,-1.8229924E-1,-1.5287204E-1,-4.697733E-2,5.0060757E-2,1.9532554E-1,3.1045693E-1,3.2446203E-1,4.352138E-1,8.2681656E-2,4.9051914E-1,3.8081917E-1,4.405322E-1,5.848054E-1,6.42288E-1,4.896648E-1,1.980217E-1],"split_indices":[9,9,9,9,9,9,9,9,9,117,0,9,20,20,16,9,0,60,20,68,12,0,116,4,20,78,9,9,20,0,0,0,60,115,9,0,20,0,21,60,117,9,0,115,9,116,9,86,11,4,9,0,9,31,0,0,0,0,0,0,0,0,0,0,0,0,0,0,0,0,0,0,0,0,0,0,0,0,0,0,0,0,0,0,0,0,0,0,0,0,0,0,0,0,0,0,0,0,0],"split_type":[0,0,0,0,0,0,0,0,0,0,0,0,0,0,0,0,0,0,0,0,0,0,0,0,0,0,0,0,0,0,0,0,0,0,0,0,0,0,0,0,0,0,0,0,0,0,0,0,0,0,0,0,0,0,0,0,0,0,0,0,0,0,0,0,0,0,0,0,0,0,0,0,0,0,0,0,0,0,0,0,0,0,0,0,0,0,0,0,0,0,0,0,0,0,0,0,0,0,0],"sum_hessian":[1.7537E4,1.3303E4,4.234E3,3.705E3,9.598E3,2.268E3,1.966E3,3.161E3,5.44E2,1.017E3,8.581E3,9.94E2,1.274E3,1.203E3,7.63E2,9.99E2,2.162E3,2.82E2,2.62E2,1.37E2,8.8E2,7.83E3,7.51E2,3.34E2,6.6E2,8E2,4.74E2,7.35E2,4.68E2,3.79E2,3.84E2,1.9E2,8.09E2,2.5E2,1.912E3,5.9E1,2.23E2,1.32E2,1.3E2,6.6E1,7.1E1,5.23E2,3.57E2,7.1E1,7.759E3,7.1E2,4.1E1,2.03E2,1.31E2,2.21E2,4.39E2,1.02E2,6.98E2,2.4E2,2.34E2,1.72E2,5.63E2,4.2E2,4.8E1,4.9E1,7.6E2,2.2E1,2.28E2,1.554E3,3.58E2,1.46E2,7.7E1,1E0,1.31E2,1.25E2,5E0,2.9E1,3.7E1,6E1,1.1E1,2.28E2,2.95E2,8E0,3.49E2,3.2E1,3.9E1,9.17E2,6.842E3,3.2E2,3.9E2,1.5E1,2.6E1,1.03E2,1E2,8.8E1,4.3E1,1E0,2.2E2,2.73E2,1.66E2,2.17E2,4.81E2,2.38E2,2E0],"tree_param":{"num_deleted":"0","num_feature":"118","num_nodes":"99","size_leaf_vector":"1"}},{"base_weights":[-5.5800978E-2,-4.0578365E0,1.2852635E1,-1.30803795E1,-3.8995653E-1,9.475297E0,1.5961092E1,-1.3963743E1,-8.369861E0,-4.7390256E0,2.311727E-2,7.8965287E0,1.1262643E1,1.7566334E1,1.3878115E1,-1.5071329E1,-1.31932E1,-7.3878975E0,-9.683478E0,-3.6520722E0,-6.478289E0,3.1523007E-1,-2.9095464E0,6.4823084E0,8.680528E0,1.191724E1,1.0126616E1,1.6754221E1,1.9684628E1,1.3134928E1,1.4873395E1,-8.755272E-1,-1.4666187E1,-1.3476401E1,-1.21223955E1,-8.201865E0,-6.367542E0,-1.0687556E1,-4.1767788E-1,-4.4237876E0,-2.2369814E0,-5.6738396E0,-6.9290533E0,2.1777642E-1,2.6083462E0,-3.1507893E0,1.0450538E0,8.076842E0,5.7738986E0,9.982144E0,8.100503E0,6.7323774E-1,5.83515E-1,4.4854674E-1,5.216904E-1,7.973435E-1,8.7310904E-1,1.0629705E0,9.4399846E-1,6.7610526E-1,6.0124356E-1,7.474552E-1,4.6664533E-1,-8.5437745E-1,-7.268845E-1,-6.3393074E-1,-6.9039756E-1,-5.1586926E-1,-6.49049E-1,-3.6891398E-1,-4.38821E-1,-2.919249E-1,-3.5633346E-1,-5.010907E-1,-6.057798E-1,-1.939069E-1,-2.599372E-1,-5.988645E-2,-1.7448781E-1,-3.146393E-1,-2.2580881E-1,-3.475891E-1,-6.1285593E-2,-5.3010758E-2,1.5043727E-2,2.5480446E-1,5.721884E-2,-1.7316823E-1,-1.416984E-1,-6.5328847E-3,1.0641169E-1,2.7402967E-1,4.235644E-1,2.1651272E-1,3.1935316E-1,5.888186E-1,4.75168E-1,3.694049E-1,4.2747584E-1],"categories":[],"categories_nodes":[],"categories_segments":[],"categories_sizes":[],"default_left":[0,0,0,0,0,0,0,0,0,0,0,0,0,0,0,0,0,0,0,0,0,0,0,0,0,0,0,0,0,0,0,0,0,0,0,0,0,0,0,0,0,0,0,0,0,0,0,0,0,0,0,0,0,0,0,0,0,0,0,0,0,0,0,0,0,0,0,0,0,0,0,0,0,0,0,0,0,0,0,0,0,0,0,0,0,0,0,0,0,0,0,0,0,0,0,0,0,0,0],"id":10,"left_children":[1,3,5,7,9,11,13,15,17,19,21,23,25,27,29,31,33,35,37,39,41,43,45,47,49,51,53,55,57,59,61,-1,63,65,67,69,71,73,-1,75,77,79,81,83,85,87,89,91,93,95,97,-1,-1,-1,-1,-1,-1,-1,-1,-1,-1,-1,-1,-1,-1,-1,-1,-1,-1,-1,-1,-1,-1,-1,-1,-1,-1,-1,-1,-1,-1,-1,-1,-1,-1,-1,-1,-1,-1,-1,-1,-1,-1,-1,-1,-1,-1,-1,-1],"loss_changes":[9.0523906E5,4.4265497E5,4.338525E4,1.59699375E4,1.7086492E4,5.526453E3,6.971875E3,2.57825E3,7.191875E2,1.536002E3,7.442798E3,1.1190078E3,5.7164844E2,1.7603438E3,5.0290625E2,1.0555625E3,4.2103125E2,2.4261328E2,2.5657422E2,5.4704785E2,7.527344E1,1.7650886E3,7.54105E2,3.848662E2,4.3176172E2,6.641406E1,2.9589844E1,2.27375E2,1.8046875E1,7.335156E1,2.6585938E1,0E0,1.07859375E2,2.2565625E2,5.061172E2,2.7045898E1,2.345166E1,1.5482422E1,0E0,1.1895801E2,2.3277502E2,5.6847656E1,1.7146484E1,8.0530493E2,1.1668857E3,6.3665527E1,5.8859383E1,7.13418E1,2.0957422E2,6.41875E1,8.877734E1,0E0,0E0,0E0,0E0,0E0,0E0,0E0,0E0,0E0,0E0,0E0,0E0,0E0,0E0,0E0,0E0,0E0,0E0,0E0,0E0,0E0,0E0,0E0,0E0,0E0,0E0,0E0,0E0,0E0,0E0,0E0,0E0,0E0,0E0,0E0,0E0,0E0,0E0,0E0,0E0,0E0,0E0,0E0,0E0,0E0,0E0,0E0,0E0],"parents":[2147483647,0,0,1,1,2,2,3,3,4,4,5,5,6,6,7,7,8,8,9,9,10,10,11,11,12,12,13,13,14,14,15,15,16,16,17,17,18,18,19,19,20,20,21,21,22,22,23,23,24,24,25,25,26,26,27,27,28,28,29,29,30,30,32,32,33,33,34,34,35,35,36,36,37,37,39,39,40,40,41,41,42,42,43,43,44,44,45,45,46,46,47,47,48,48,49,49,50,50],"right_children":[2,4,6,8,10,12,14,16,18,20,22,24,26,28,30,32,34,36,38,40,42,44,46,48,50,52,54,56,58,60,62,-1,64,66,68,70,72,74,-1,76,78,80,82,84,86,88,90,92,94,96,98,-1,-1,-1,-1,-1,-1,-1,-1,-1,-1,-1,-1,-1,-1,-1,-1,-1,-1,-1,-1,-1,-1,-1,-1,-1,-1,-1,-1,-1,-1,-1,-1,-1,-1,-1,-1,-1,-1,-1,-1,-1,-1,-1,-1,-1,-1,-1,-1],"split_conditions":[1.2601E1,1.1298E1,1.3609E1,1.0865E1,1.1671E1,1.3313E1,1.2422E1,1.0466E1,1.9434E1,2.1474E1,1.9971E4,1.305E1,2.1373798E1,1.4159E1,1.3756667E1,1.0243E1,1.0712E1,1.111E1,1.111E1,1.1575E1,2.46E1,1.2329E1,2.9235654E0,1.7401E1,2.3907E1,5.346825E2,2.0320188E-1,1.3971E1,5.8362E0,1.8303E1,3.7980459E0,-8.755272E-1,1.90635E1,6.878E3,1.98E1,1.1519E1,1.3906E1,2.6275E1,-4.1767788E-1,1.4682E1,1.4131E1,2.3651E1,2.4655E1,1.1758E1,2.3014E1,1.0789E3,1.2329E1,7E0,1.2788E1,1.3202E1,3.0035E1,6.7323774E-1,5.83515E-1,4.4854674E-1,5.216904E-1,7.973435E-1,8.7310904E-1,1.0629705E0,9.4399846E-1,6.7610526E-1,6.0124356E-1,7.474552E-1,4.6664533E-1,-8.5437745E-1,-7.268845E-1,-6.3393074E-1,-6.9039756E-1,-5.1586926E-1,-6.49049E-1,-3.6891398E-1,-4.38821E-1,-2.919249E-1,-3.5633346E-1,-5.010907E-1,-6.057798E-1,-1.939069E-1,-2.599372E-1,-5.988645E-2,-1.7448781E-1,-3.146393E-1,-2.2580881E-1,-3.475891E-1,-6.1285593E-2,-5.3010758E-2,1.5043727E-2,2.5480446E-1,5.721884E-2,-1.7316823E-1,-1.416984E-1,-6.5328847E-3,1.0641169E-1,2.7402967E-1,4.235644E-1,2.1651272E-1,3.1935316E-1,5.888186E-1,4.75168E-1,3.694049E-1,4.2747584E-1],"split_indices":[9,9,9,9,9,9,2,9,2,2,0,9,20,9,86,9,9,9,9,9,2,9,116,2,2,80,51,9,2,2,21,0,58,0,2,2,2,2,0,2,2,6,6,9,2,7,9,115,9,2,6,0,0,0,0,0,0,0,0,0,0,0,0,0,0,0,0,0,0,0,0,0,0,0,0,0,0,0,0,0,0,0,0,0,0,0,0,0,0,0,0,0,0,0,0,0,0,0,0],"split_type":[0,0,0,0,0,0,0,0,0,0,0,0,0,0,0,0,0,0,0,0,0,0,0,0,0,0,0,0,0,0,0,0,0,0,0,0,0,0,0,0,0,0,0,0,0,0,0,0,0,0,0,0,0,0,0,0,0,0,0,0,0,0,0,0,0,0,0,0,0,0,0,0,0,0,0,0,0,0,0,0,0,0,0,0,0,0,0,0,0,0,0,0,0,0,0,0,0,0,0],"sum_hessian":[1.7521E4,1.3375E4,4.146E3,3.865E3,9.51E3,1.989E3,2.157E3,3.253E3,6.12E2,8.24E2,8.686E3,1.059E3,9.3E2,1.214E3,9.43E2,1.327E3,1.926E3,3.54E2,2.58E2,5.09E2,3.15E2,7.9E3,7.86E2,3.81E2,6.78E2,5.84E2,3.46E2,8.84E2,3.3E2,5.48E2,3.95E2,1.83E2,1.144E3,1.514E3,4.12E2,1.93E2,1.61E2,1.43E2,1.15E2,3.28E2,1.81E2,1.18E2,1.97E2,7.579E3,3.21E2,7.41E2,4.5E1,1.14E2,2.67E2,2.04E2,4.74E2,7.3E1,5.11E2,7.9E1,2.67E2,4.24E2,4.6E2,1.03E2,2.27E2,3.98E2,1.5E2,3.88E2,7E0,5.1E1,1.093E3,4.56E2,1.058E3,1.37E2,2.75E2,8.5E1,1.08E2,1E2,6.1E1,1.03E2,4E1,1.96E2,1.32E2,1E2,8.1E1,7.4E1,4.4E1,1.96E2,1E0,4.62E2,7.117E3,1.18E2,2.03E2,3.68E2,3.73E2,2.2E1,2.3E1,1.7E1,9.7E1,8.2E1,1.85E2,3.8E1,1.66E2,1.9E2,2.84E2],"tree_param":{"num_deleted":"0","num_feature":"118","num_nodes":"99","size_leaf_vector":"1"}},{"base_weights":[-3.9596325E-3,-3.8671992E0,1.2092639E1,-1.2450639E1,-3.9208475E-1,8.432632E0,1.4945004E1,-1.3391796E1,-8.479276E0,-4.298119E0,1.9388157E-3,6.50058E0,9.709061E0,1.6987251E1,1.3253077E1,-8.089839E-1,-1.3145508E1,-9.8970785E0,-7.237422E0,-2.3280745E0,-5.429882E0,2.7806413E-1,-2.8182285E0,4.653446E0,7.1609325E0,1.0708272E1,8.655665E0,1.6268158E1,9.4732946E-1,1.2308031E1,1.4393554E1,-1.2044633E1,-1.3484661E1,-8.845386E0,-5.625211E-1,-6.2452083E0,-8.117437E0,-3.1688006E0,-3.3007377E-1,-4.635748E0,-3.2579395E-1,2.9847193E0,2.2930384E-1,-2.967785E0,1.1718629E-1,6.005538E0,3.2406921E0,8.899244E0,6.6896586E0,5.848757E-1,1.0434107E1,9.150504E0,3.9863402E-1,7.683915E-1,8.4017056E-1,6.5569085E-1,5.928435E-1,7.534849E-1,1.3440277E1,-4.9926743E-1,-6.092841E-1,-8.108727E-1,-6.70014E-1,-3.0951664E-1,-4.4774246E-1,-3.3909938E-1,-2.7658784E-1,-3.746397E-1,-4.5998046E-1,-1.8713535E-1,-1.0778367E-1,-7.561954E-2,4.544196E-3,-2.863879E-1,-1.9341122E-1,1.0234298E-1,2.3232031E-1,-2.018895E-2,1.8497618E-2,-1.7492417E-1,-1.392071E-1,-2.405461E-2,8.147118E-2,1.086148E-1,3.071314E-1,3.343239E-2,1.7145616E-1,4.012303E-1,4.9582353E-1,2.906522E-1,3.6552864E-1,4.6751925E-1,5.341849E-1,1.8238398E-1,4.5871583E-1,6.833628E-1,4.9687394E-1],"categories":[],"categories_nodes":[],"categories_segments":[],"categories_sizes":[],"default_left":[0,0,0,0,0,0,0,0,0,0,0,0,0,0,0,0,0,0,0,0,0,0,0,0,0,0,0,0,0,0,0,0,0,0,0,0,0,0,0,0,0,0,0,0,0,0,0,0,0,0,0,0,0,0,0,0,0,0,0,0,0,0,0,0,0,0,0,0,0,0,0,0,0,0,0,0,0,0,0,0,0,0,0,0,0,0,0,0,0,0,0,0,0,0,0,0,0],"id":11,"left_children":[1,3,5,7,9,11,13,15,17,19,21,23,25,27,29,-1,31,33,35,37,39,41,43,45,47,49,51,53,-1,55,57,59,61,63,-1,65,67,69,71,73,-1,75,77,79,81,83,85,87,89,-1,91,93,-1,-1,-1,-1,-1,-1,95,-1,-1,-1,-1,-1,-1,-1,-1,-1,-1,-1,-1,-1,-1,-1,-1,-1,-1,-1,-1,-1,-1,-1,-1,-1,-1,-1,-1,-1,-1,-1,-1,-1,-1,-1,-1,-1,-1],"loss_changes":[8.166428E5,3.950727E5,4.4033812E4,1.415325E4,1.45118955E4,4.511547E3,7.98475E3,1.904875E3,1.2207227E3,1.9137529E3,6.6712954E3,8.7051953E2,1.0809219E3,1.2035938E3,1.2282656E3,0E0,8.9753125E2,3.8441016E2,2.9420312E2,5.3144165E2,4.424043E2,1.0291348E3,3.3575195E2,3.5875195E2,3.86125E2,3.2E1,1.1225E2,1.234375E2,0E0,1.06265625E2,1.7453125E2,7.525E1,2.8125E2,1.5292969E0,0E0,3.524756E1,7.0319336E1,1.2159302E2,4.7419468E1,2.4604932E2,0E0,2.0555261E2,6.827467E2,6.1112305E1,3.516399E1,3.92063E1,4.5687744E1,2.0960938E1,1.9264062E2,0E0,2.2902344E1,7.2871094E0,0E0,0E0,0E0,0E0,0E0,0E0,6.453906E1,0E0,0E0,0E0,0E0,0E0,0E0,0E0,0E0,0E0,0E0,0E0,0E0,0E0,0E0,0E0,0E0,0E0,0E0,0E0,0E0,0E0,0E0,0E0,0E0,0E0,0E0,0E0,0E0,0E0,0E0,0E0,0E0,0E0,0E0,0E0,0E0,0E0,0E0],"parents":[2147483647,0,0,1,1,2,2,3,3,4,4,5,5,6,6,7,7,8,8,9,9,10,10,11,11,12,12,13,13,14,14,16,16,17,17,18,18,19,19,20,20,21,21,22,22,23,23,24,24,25,25,26,26,27,27,29,29,30,30,31,31,32,32,33,33,35,35,36,36,37,37,38,38,39,39,41,41,42,42,43,43,44,44,45,45,46,46,47,47,48,48,50,50,51,51,58,58],"right_children":[2,4,6,8,10,12,14,16,18,20,22,24,26,28,30,-1,32,34,36,38,40,42,44,46,48,50,52,54,-1,56,58,60,62,64,-1,66,68,70,72,74,-1,76,78,80,82,84,86,88,90,-1,92,94,-1,-1,-1,-1,-1,-1,96,-1,-1,-1,-1,-1,-1,-1,-1,-1,-1,-1,-1,-1,-1,-1,-1,-1,-1,-1,-1,-1,-1,-1,-1,-1,-1,-1,-1,-1,-1,-1,-1,-1,-1,-1,-1,-1,-1],"split_conditions":[1.2508E1,1.1298E1,1.3548E1,1.0802E1,1.1684E1,1.3175E1,1.1602E1,1.0284E1,1.1011E1,1.4131E1,1.9971E4,1.2788E1,2.267539E1,1.4195E1,1.3789E1,-8.089839E-1,6.964E3,2.0853E1,1.5684E1,-1.7518606E0,2.4003E1,2.508E3,1.0835E3,2.0508E1,1.8673E1,1.5858E1,2.5244917E1,1.3971E1,9.4732946E-1,1.5432E1,1.3476142E1,6.108E3,1.9119375E1,5.936E3,-5.625211E-1,1.1169E1,2.2624E1,1.1514E1,1.0846833E3,1.1485E1,-3.2579395E-1,1.2395583E1,1.1837E1,6.4736E1,7.194852E0,1.0811E3,2.464725E1,1.0964E3,1.2986667E1,5.848757E-1,1.3334E1,2.0561E1,3.9863402E-1,7.683915E-1,8.4017056E-1,6.5569085E-1,5.928435E-1,7.534849E-1,1.9621E1,-4.9926743E-1,-6.092841E-1,-8.108727E-1,-6.70014E-1,-3.0951664E-1,-4.4774246E-1,-3.3909938E-1,-2.7658784E-1,-3.746397E-1,-4.5998046E-1,-1.8713535E-1,-1.0778367E-1,-7.561954E-2,4.544196E-3,-2.863879E-1,-1.9341122E-1,1.0234298E-1,2.3232031E-1,-2.018895E-2,1.8497618E-2,-1.7492417E-1,-1.392071E-1,-2.405461E-2,8.147118E-2,1.086148E-1,3.071314E-1,3.343239E-2,1.7145616E-1,4.012303E-1,4.9582353E-1,2.906522E-1,3.6552864E-1,4.6751925E-1,5.341849E-1,1.8238398E-1,4.5871583E-1,6.833628E-1,4.9687394E-1],"split_indices":[9,9,9,9,9,9,2,9,9,2,0,9,20,9,9,0,0,2,2,116,2,0,7,2,2,2,20,9,0,2,20,0,60,0,0,9,2,9,68,9,0,90,9,4,116,7,60,7,86,0,9,52,0,0,0,0,0,0,2,0,0,0,0,0,0,0,0,0,0,0,0,0,0,0,0,0,0,0,0,0,0,0,0,0,0,0,0,0,0,0,0,0,0,0,0,0,0],"split_type":[0,0,0,0,0,0,0,0,0,0,0,0,0,0,0,0,0,0,0,0,0,0,0,0,0,0,0,0,0,0,0,0,0,0,0,0,0,0,0,0,0,0,0,0,0,0,0,0,0,0,0,0,0,0,0,0,0,0,0,0,0,0,0,0,0,0,0,0,0,0,0,0,0,0,0,0,0,0,0,0,0,0,0,0,0,0,0,0,0,0,0,0,0,0,0,0,0],"sum_hessian":[1.7473E4,1.3244E4,4.229E3,3.816E3,9.428E3,1.854E3,2.375E3,3.083E3,7.33E2,8.63E2,8.565E3,7.4E2,1.114E3,1.072E3,1.303E3,2.45E2,2.838E3,3.39E2,3.94E2,3.16E2,5.47E2,7.802E3,7.63E2,1.97E2,5.43E2,5.67E2,5.47E2,7.91E2,2.81E2,7.19E2,5.84E2,6.77E2,2.161E3,1.95E2,1.44E2,1.89E2,2.05E2,2.22E2,9.4E1,3.19E2,2.28E2,1.37E2,7.665E3,7.26E2,3.7E1,9.9E1,9.8E1,1.12E2,4.31E2,1.14E2,4.53E2,3.1E2,2.37E2,3.06E2,4.85E2,2.48E2,4.71E2,3.33E2,2.51E2,4.8E1,6.29E2,5.9E1,2.102E3,1E1,1.85E2,1.03E2,8.6E1,1.35E2,7E1,1.4E2,8.2E1,2.4E1,7E1,1.29E2,1.9E2,8.9E1,4.8E1,1.393E3,6.272E3,1.82E2,5.44E2,2.7E1,1E1,4E0,9.5E1,7E0,9.1E1,6.5E1,4.7E1,1.83E2,2.48E2,9.2E1,3.61E2,2E0,3.08E2,2.33E2,1.8E1],"tree_param":{"num_deleted":"0","num_feature":"118","num_nodes":"97","size_leaf_vector":"1"}},{"base_weights":[-4.726305E-2,-3.6572967E0,1.1587216E1,-1.1824772E1,-3.4316027E-1,8.758724E0,1.4570519E1,-1.268593E1,-7.873764E0,-3.5413682E0,9.075076E-2,7.0854564E0,1.0360493E1,1.3248296E1,1.6521873E1,-1.4016982E1,-1.2177973E1,-9.190857E0,-6.92981E0,-4.326363E0,-7.860629E-1,-2.441734E0,3.3995053E-1,5.565783E0,7.7461624E0,1.098085E1,9.300535E0,1.4097941E1,1.2148088E1,1.5798242E1,9.178788E-1,-7.895203E-1,-1.3451994E1,-1.2627663E1,-1.1661087E1,-5.382795E-1,-8.657497E0,-6.224497E0,-7.722533E0,-3.6738455E0,-5.63447E0,-1.3501446E-2,-3.3699148E0,-2.6921363E0,5.238373E-1,2.5180948E-1,2.4023783E0,7.214421E0,5.002264E0,8.929151E0,7.2607536E0,6.241862E-1,1.07410345E1,8.921716E0,5.14425E-1,6.486102E-1,7.210784E-1,6.147791E-1,4.8892537E-1,8.102275E-1,7.3269665E-1,-7.773776E-1,-6.6388196E-1,-6.4829224E-1,-6.0514504E-1,-5.4086566E-1,-6.131141E-1,-4.0316755E-1,-4.8523542E-1,-3.3583617E-1,-2.789022E-1,-4.2075235E-1,-3.5507852E-1,-2.2581995E-1,-1.557609E-1,-3.08792E-1,-2.400044E-1,1.5952894E-2,-3.0595768E-2,-2.6492232E-2,-2.3699765E-1,-1.40667E-1,-8.671529E-2,3.1050926E-3,8.304713E-2,1.2818714E-4,2.3739373E-2,2.0780694E-1,4.521059E-2,2.548375E-1,3.8155565E-1,3.3703968E-1,2.2898729E-1,6.411324E-2,4.4800988E-1,3.3850142E-1,3.9205676E-1,5.030728E-1,5.5129564E-1,1.2085991E-1,4.46767E-1],"categories":[],"categories_nodes":[],"categories_segments":[],"categories_sizes":[],"default_left":[0,0,0,0,0,0,0,0,0,0,0,0,0,0,0,0,0,0,0,0,0,0,0,0,0,0,0,0,0,0,0,0,0,0,0,0,0,0,0,0,0,0,0,0,0,0,0,0,0,0,0,0,0,0,0,0,0,0,0,0,0,0,0,0,0,0,0,0,0,0,0,0,0,0,0,0,0,0,0,0,0,0,0,0,0,0,0,0,0,0,0,0,0,0,0,0,0,0,0,0,0],"id":12,"left_children":[1,3,5,7,9,11,13,15,17,19,21,23,25,27,29,31,33,35,37,39,41,43,45,47,49,51,53,55,57,59,-1,-1,61,63,65,-1,67,69,71,73,75,77,79,81,83,85,87,89,91,93,95,-1,97,99,-1,-1,-1,-1,-1,-1,-1,-1,-1,-1,-1,-1,-1,-1,-1,-1,-1,-1,-1,-1,-1,-1,-1,-1,-1,-1,-1,-1,-1,-1,-1,-1,-1,-1,-1,-1,-1,-1,-1,-1,-1,-1,-1,-1,-1,-1,-1],"loss_changes":[7.3232744E5,3.6019153E5,3.4713875E4,1.2968875E4,1.3138035E4,5.613953E3,4.962E3,1.9604688E3,7.9416797E2,2.4428389E3,5.262266E3,1.0021133E3,6.0934375E2,9.5234375E2,7.819844E2,6.5328125E2,3.8478125E2,1.4616797E2,1.789336E2,7.3043555E2,5.029929E2,5.561211E2,1.3793213E3,2.602744E2,3.5033984E2,1.0991406E2,6.015625E1,5.7734375E1,6.535156E1,3.4984375E1,0E0,0E0,3.5453125E1,5.815625E1,4.1420312E2,0E0,5.7384766E1,3.2538086E1,2.0655273E1,2.6362793E2,1.01802734E2,3.9001823E1,2.2316687E2,7.510889E1,3.087432E1,4.046499E2,8.133717E2,3.0816895E1,1.4615771E2,3.741797E1,9.4447266E1,0E0,3.4765625E0,5.076172E0,0E0,0E0,0E0,0E0,0E0,0E0,0E0,0E0,0E0,0E0,0E0,0E0,0E0,0E0,0E0,0E0,0E0,0E0,0E0,0E0,0E0,0E0,0E0,0E0,0E0,0E0,0E0,0E0,0E0,0E0,0E0,0E0,0E0,0E0,0E0,0E0,0E0,0E0,0E0,0E0,0E0,0E0,0E0,0E0,0E0,0E0,0E0],"parents":[2147483647,0,0,1,1,2,2,3,3,4,4,5,5,6,6,7,7,8,8,9,9,10,10,11,11,12,12,13,13,14,14,15,15,16,16,17,17,18,18,19,19,20,20,21,21,22,22,23,23,24,24,25,25,26,26,27,27,28,28,29,29,32,32,33,33,34,34,36,36,37,37,38,38,39,39,40,40,41,41,42,42,43,43,44,44,45,45,46,46,47,47,48,48,49,49,50,50,52,52,53,53],"right_children":[2,4,6,8,10,12,14,16,18,20,22,24,26,28,30,32,34,36,38,40,42,44,46,48,50,52,54,56,58,60,-1,-1,62,64,66,-1,68,70,72,74,76,78,80,82,84,86,88,90,92,94,96,-1,98,100,-1,-1,-1,-1,-1,-1,-1,-1,-1,-1,-1,-1,-1,-1,-1,-1,-1,-1,-1,-1,-1,-1,-1,-1,-1,-1,-1,-1,-1,-1,-1,-1,-1,-1,-1,-1,-1,-1,-1,-1,-1,-1,-1,-1,-1,-1,-1],"split_conditions":[1.2601E1,1.1298E1,1.365E1,1.083E1,1.1728E1,1.3313E1,1.3988E1,1.0409E1,1.1011E1,1.0813E3,5.6018E1,1.3001E1,2.102979E1,1.3925709E1,1.4225E1,1.8843E1,1.0567E1,2.0958334E1,1.7718542E1,2.3109E1,1.7093E1,1.2116E1,1.2329E1,5.428883E2,2.3433043E1,5.342596E2,3.0871E1,1.3789E1,2.2148E1,1.0444883E1,9.178788E-1,-7.895203E-1,-4.4471817E1,2.2560987E0,2.0669333E1,-5.382795E-1,2.0935966E1,1.1169E1,1.1169E1,1.1485E1,1.0749E3,9.9858E0,1.3970525E0,1.2001E1,1.2329E1,1.1927292E1,5.480371E2,6.942949E-1,3.806E0,4.3484E1,1.3159333E1,6.241862E-1,1.3467E1,3.195426E-1,5.14425E-1,6.486102E-1,7.210784E-1,6.147791E-1,4.8892537E-1,8.102275E-1,7.3269665E-1,-7.773776E-1,-6.6388196E-1,-6.4829224E-1,-6.0514504E-1,-5.4086566E-1,-6.131141E-1,-4.0316755E-1,-4.8523542E-1,-3.3583617E-1,-2.789022E-1,-4.2075235E-1,-3.5507852E-1,-2.2581995E-1,-1.557609E-1,-3.08792E-1,-2.400044E-1,1.5952894E-2,-3.0595768E-2,-2.6492232E-2,-2.3699765E-1,-1.40667E-1,-8.671529E-2,3.1050926E-3,8.304713E-2,1.2818714E-4,2.3739373E-2,2.0780694E-1,4.521059E-2,2.548375E-1,3.8155565E-1,3.3703968E-1,2.2898729E-1,6.411324E-2,4.4800988E-1,3.3850142E-1,3.9205676E-1,5.030728E-1,5.5129564E-1,1.2085991E-1,4.46767E-1],"split_indices":[9,9,9,9,9,9,9,9,9,7,11,9,20,20,9,6,9,60,20,12,12,9,9,78,20,80,56,9,12,18,0,0,116,31,16,0,20,9,9,9,63,12,100,9,9,90,80,29,45,4,86,0,9,61,0,0,0,0,0,0,0,0,0,0,0,0,0,0,0,0,0,0,0,0,0,0,0,0,0,0,0,0,0,0,0,0,0,0,0,0,0,0,0,0,0,0,0,0,0,0,0],"split_type":[0,0,0,0,0,0,0,0,0,0,0,0,0,0,0,0,0,0,0,0,0,0,0,0,0,0,0,0,0,0,0,0,0,0,0,0,0,0,0,0,0,0,0,0,0,0,0,0,0,0,0,0,0,0,0,0,0,0,0,0,0,0,0,0,0,0,0,0,0,0,0,0,0,0,0,0,0,0,0,0,0,0,0,0,0,0,0,0,0,0,0,0,0,0,0,0,0,0,0,0,0],"sum_hessian":[1.7434E4,1.3306E4,4.128E3,3.84E3,9.466E3,2.121E3,2.007E3,3.151E3,6.89E2,1.13E3,8.336E3,1.04E3,1.081E3,1.201E3,8.06E2,8.63E2,2.288E3,2.84E2,4.05E2,8.79E2,2.51E2,7.46E2,7.59E3,3.18E2,7.22E2,6.76E2,4.05E2,6.71E2,5.3E2,5.85E2,2.21E2,2.02E2,6.61E2,1.211E3,1.077E3,6.7E1,2.17E2,2.19E2,1.86E2,5.89E2,2.9E2,1.94E2,5.7E1,6.88E2,5.8E1,7.28E3,3.1E2,7.8E1,2.4E2,2.05E2,5.17E2,8.6E1,5.9E2,3E2,1.05E2,1.59E2,5.12E2,4.95E2,3.5E1,4.22E2,1.63E2,4.4E1,6.17E2,7.22E2,4.89E2,4.56E2,6.21E2,1.44E2,7.3E1,1.19E2,1E2,8.2E1,1.04E2,2.32E2,3.57E2,1.72E2,1.18E2,1.25E2,6.9E1,1.9E1,3.8E1,6.09E2,7.9E1,4.2E1,1.6E1,3.438E3,3.842E3,1.42E2,1.68E2,1.5E1,6.3E1,4.4E1,1.96E2,1E0,2.04E2,2.87E2,2.3E2,1.85E2,4.05E2,1E0,2.99E2],"tree_param":{"num_deleted":"0","num_feature":"118","num_nodes":"101","size_leaf_vector":"1"}},{"base_weights":[6.658741E-3,-3.4922311E0,1.0855833E1,-1.123255E1,-3.5473618E-1,7.7413125E0,1.3513388E1,-1.2020485E1,-7.434635E0,-4.017341E0,-1.6067307E-2,5.820811E0,8.900133E0,1.1977274E1,1.5185119E1,-1.3195409E1,-1.1484837E1,-8.524447E0,-6.3454037E0,-2.5700815E0,-4.882287E0,-2.40929E0,2.4428791E-1,4.256293E0,6.402891E0,8.03107E0,9.758931E0,1.2851201E1,1.1134671E1,1.6599257E1,1.4322027E1,-7.55686E-1,-1.2729928E1,-1.0835508E1,-1.1873625E1,-4.812684E-1,-7.8397336E0,-5.4395013E0,-6.925161E0,-3.0251772E0,-2.7990243E-1,-4.2147455E0,-5.867451E0,-2.7008297E0,1.5763905E-2,1.6977683E-1,1.4403328E0,3.715929E0,6.2056656E0,8.163447E0,6.047535E0,8.736185E0,7.5792994E0,1.0035496E1,8.715132E0,6.5695214E-1,5.842263E-1,6.1108017E-1,1.0811166E1,8.008995E-1,9.2472285E-1,7.331793E-1,6.567524E-1,-7.552304E-1,-6.2773216E-1,-5.6267834E-1,-5.128421E-1,-6.0069305E-1,-5.285384E-1,-3.4756944E-1,-4.1076088E-1,-1.7481862E-1,-2.8089485E-1,-1.8922755E-1,-3.5181543E-1,-1.7566293E-1,-1.1070329E-1,1.3244607E-2,-6.4670436E-2,-2.6125744E-1,-1.7286988E-1,-2.945501E-1,-3.0112458E-2,-1.4792486E-1,-1.1378475E-1,2.4217155E-2,-1.039994E-1,-5.6442074E-3,1.9308424E-2,2.2144175E-1,4.4416644E-2,1.2980117E-1,2.1801129E-1,1.2687531E-1,3.2584116E-1,3.7356943E-1,4.689798E-1,4.483218E-1,2.9602185E-1,4.383145E-1,1.7480087E-1,3.5918936E-1,4.0318248E-1,5.1191586E-1,4.4811377E-1,4.377554E-1,8.29586E-2,5.4778033E-1,4.5082465E-1],"categories":[],"categories_nodes":[],"categories_segments":[],"categories_sizes":[],"default_left":[0,0,0,0,0,0,0,0,0,0,0,0,0,0,0,0,0,0,0,0,0,0,0,0,0,0,0,0,0,0,0,0,0,0,0,0,0,0,0,0,0,0,0,0,0,0,0,0,0,0,0,0,0,0,0,0,0,0,0,0,0,0,0,0,0,0,0,0,0,0,0,0,0,0,0,0,0,0,0,0,0,0,0,0,0,0,0,0,0,0,0,0,0,0,0,0,0,0,0,0,0,0,0,0,0,0,0,0,0],"id":13,"left_children":[1,3,5,7,9,11,13,15,17,19,21,23,25,27,29,31,33,35,37,39,41,43,45,47,49,51,53,55,57,59,61,-1,63,65,67,-1,69,71,73,75,77,79,81,83,85,87,89,91,93,95,97,99,101,103,105,-1,-1,-1,107,-1,-1,-1,-1,-1,-1,-1,-1,-1,-1,-1,-1,-1,-1,-1,-1,-1,-1,-1,-1,-1,-1,-1,-1,-1,-1,-1,-1,-1,-1,-1,-1,-1,-1,-1,-1,-1,-1,-1,-1,-1,-1,-1,-1,-1,-1,-1,-1,-1,-1],"loss_changes":[6.659334E5,3.221393E5,3.5304375E4,1.136E4,1.1709409E4,4.336914E3,5.7424375E3,1.841625E3,7.293633E2,9.876426E2,5.385315E3,6.512012E2,8.381406E2,7.4571875E2,1.1060781E3,6.871406E2,4.224375E2,1.7103711E2,1.3774902E2,3.1287073E2,3.0343164E2,5.995786E2,6.944348E2,1.928811E2,2.8909375E2,1.3001562E2,8.95E1,4.3265625E1,8.6578125E1,1.5651562E2,8.753125E1,0E0,1.4295312E2,8.5125E1,1.205625E2,0E0,1.1939453E1,2.715503E1,4.318457E1,9.15896E1,2.8502403E1,2.1226758E2,2.1127441E1,7.619141E1,9.135378E1,4.48937E2,7.4995715E2,1.0629346E2,3.2542603E1,3.9858398E0,1.1534375E2,6.267578E0,1.5441406E1,1.2292969E1,2.383496E1,0E0,0E0,0E0,2.7722656E1,0E0,0E0,0E0,0E0,0E0,0E0,0E0,0E0,0E0,0E0,0E0,0E0,0E0,0E0,0E0,0E0,0E0,0E0,0E0,0E0,0E0,0E0,0E0,0E0,0E0,0E0,0E0,0E0,0E0,0E0,0E0,0E0,0E0,0E0,0E0,0E0,0E0,0E0,0E0,0E0,0E0,0E0,0E0,0E0,0E0,0E0,0E0,0E0,0E0,0E0],"parents":[2147483647,0,0,1,1,2,2,3,3,4,4,5,5,6,6,7,7,8,8,9,9,10,10,11,11,12,12,13,13,14,14,15,15,16,16,17,17,18,18,19,19,20,20,21,21,22,22,23,23,24,24,25,25,26,26,27,27,28,28,29,29,30,30,32,32,33,33,34,34,36,36,37,37,38,38,39,39,40,40,41,41,42,42,43,43,44,44,45,45,46,46,47,47,48,48,49,49,50,50,51,51,52,52,53,53,54,54,58,58],"right_children":[2,4,6,8,10,12,14,16,18,20,22,24,26,28,30,32,34,36,38,40,42,44,46,48,50,52,54,56,58,60,62,-1,64,66,68,-1,70,72,74,76,78,80,82,84,86,88,90,92,94,96,98,100,102,104,106,-1,-1,-1,108,-1,-1,-1,-1,-1,-1,-1,-1,-1,-1,-1,-1,-1,-1,-1,-1,-1,-1,-1,-1,-1,-1,-1,-1,-1,-1,-1,-1,-1,-1,-1,-1,-1,-1,-1,-1,-1,-1,-1,-1,-1,-1,-1,-1,-1,-1,-1,-1,-1,-1],"split_conditions":[1.2508E1,1.1298E1,1.3572E1,1.083E1,1.1671E1,1.3175E1,1.3918E1,1.0425E1,1.1066E1,1.5845E1,5.6358E1,1.2788E1,1.3381E1,1.4452E1,8.4606E0,1.0243E1,-7.449933E-1,5.7546E1,1.4396E1,1.0806E3,2.4133E1,1.206E1,1.2284E1,7.522E1,5.407612E2,2.28275E1,2.4489E1,2.4863343E0,5.333383E2,4.3681483E0,1.1539925E1,-7.55686E-1,1.9119375E1,1.0674764E1,1.0712E1,-4.812684E-1,1.1353E1,1.00125275E3,-1.9024715E0,1.1514E1,1.6694666E0,1.1485E1,1.0813E3,1.1874E1,3.0469E1,1.1898209E1,5.459121E2,6.9934E1,1.0879E3,1.3281584E1,1.11169E1,5.5924E0,3.0319E1,4.353425E0,3.1051E1,6.5695214E-1,5.842263E-1,6.1108017E-1,4.353425E0,8.008995E-1,9.2472285E-1,7.331793E-1,6.567524E-1,-7.552304E-1,-6.2773216E-1,-5.6267834E-1,-5.128421E-1,-6.0069305E-1,-5.285384E-1,-3.4756944E-1,-4.1076088E-1,-1.7481862E-1,-2.8089485E-1,-1.8922755E-1,-3.5181543E-1,-1.7566293E-1,-1.1070329E-1,1.3244607E-2,-6.4670436E-2,-2.6125744E-1,-1.7286988E-1,-2.945501E-1,-3.0112458E-2,-1.4792486E-1,-1.1378475E-1,2.4217155E-2,-1.039994E-1,-5.6442074E-3,1.9308424E-2,2.2144175E-1,4.4416644E-2,1.2980117E-1,2.1801129E-1,1.2687531E-1,3.2584116E-1,3.7356943E-1,4.689798E-1,4.483218E-1,2.9602185E-1,4.383145E-1,1.7480087E-1,3.5918936E-1,4.0318248E-1,5.1191586E-1,4.4811377E-1,4.377554E-1,8.29586E-2,5.4778033E-1,4.5082465E-1],"split_indices":[9,9,9,9,9,9,9,9,9,16,11,9,9,12,16,9,117,11,16,7,16,9,9,11,80,18,15,21,80,117,18,0,60,90,9,0,12,30,117,9,96,9,7,9,12,90,80,4,7,90,18,92,52,21,12,0,0,0,21,0,0,0,0,0,0,0,0,0,0,0,0,0,0,0,0,0,0,0,0,0,0,0,0,0,0,0,0,0,0,0,0,0,0,0,0,0,0,0,0,0,0,0,0,0,0,0,0,0,0],"split_type":[0,0,0,0,0,0,0,0,0,0,0,0,0,0,0,0,0,0,0,0,0,0,0,0,0,0,0,0,0,0,0,0,0,0,0,0,0,0,0,0,0,0,0,0,0,0,0,0,0,0,0,0,0,0,0,0,0,0,0,0,0,0,0,0,0,0,0,0,0,0,0,0,0,0,0,0,0,0,0,0,0,0,0,0,0,0,0,0,0,0,0,0,0,0,0,0,0,0,0,0,0,0,0,0,0,0,0,0,0],"sum_hessian":[1.7541E4,1.3264E4,4.277E3,3.825E3,9.439E3,1.971E3,2.306E3,3.166E3,6.59E2,7.98E2,8.641E3,7.44E2,1.227E3,1.206E3,1.1E3,9.84E2,2.182E3,3.26E2,3.33E2,3E2,4.98E2,8.47E2,7.794E3,2.04E2,5.4E2,6.15E2,6.12E2,5.85E2,6.21E2,4.1E2,6.9E2,1.86E2,7.98E2,8.28E2,1.354E3,1.2E2,2.06E2,1.34E2,1.99E2,2.5E2,5E1,3E2,1.98E2,7.56E2,9.1E1,7.338E3,4.56E2,1.62E2,4.2E1,8.7E1,4.53E2,2.33E2,3.82E2,4.77E2,1.35E2,4.61E2,1.24E2,1.34E2,4.87E2,3.21E2,8.9E1,5.27E2,1.63E2,4.9E1,7.49E2,4.7E2,3.58E2,1.215E3,1.39E2,6.7E1,1.39E2,1.3E1,1.21E2,8E0,1.91E2,1.54E2,9.6E1,3.3E1,1.7E1,1.26E2,1.74E2,1.97E2,1E0,4.67E2,2.89E2,7.5E1,1.6E1,3.182E3,4.156E3,7E1,3.86E2,6.1E1,1.01E2,4E0,3.8E1,6E1,2.7E1,1.6E1,4.37E2,2.31E2,2E0,2.19E2,1.63E2,3.94E2,8.3E1,1.34E2,1E0,4.46E2,4.1E1],"tree_param":{"num_deleted":"0","num_feature":"118","num_nodes":"109","size_leaf_vector":"1"}},{"base_weights":[8.343154E-4,-3.3193047E0,1.0353093E1,-1.0859436E1,-4.098359E-1,7.059332E0,1.2585504E1,-1.1480145E1,-7.6650944E0,-4.4181037E0,-5.0493356E-2,5.2520585E0,8.019396E0,1.0989684E1,1.425102E1,-7.182232E-1,-1.1288737E1,-9.123729E0,-6.905824E0,-3.6956553E0,-5.443545E0,2.1106766E-1,-2.4384964E0,3.9227495E0,5.8856926E0,9.043859E0,7.192918E0,1.1716254E1,1.0121281E1,1.3358564E1,1.5597076E1,-1.046264E1,-1.1681095E1,-5.0019425E-1,-4.054164E-1,-6.136399E0,-7.659879E0,-4.609607E0,-3.0990415E0,-5.934198E0,-4.57134E0,2.226825E0,1.5785003E-1,-2.6493812E0,1.3061154E0,4.6375413E0,2.7485604E0,7.650335E0,5.5195665E0,4.3739897E-1,4.9420223E-1,7.705404E0,6.601262E0,1.1140346E1,6.1087316E-1,4.650549E-1,1.0423908E1,6.871626E-1,6.176607E-1,8.416954E-1,7.372497E-1,-4.1425696E-1,-5.274816E-1,-7.055124E-1,-5.792574E-1,-1.6235782E-1,-3.103776E-1,-4.720757E-1,-3.643873E-1,-2.8399223E-1,-2.1188323E-1,-1.9859767E-1,-1.2425889E-1,-2.9930502E-1,-1.8091829E-1,-1.5264535E-1,-2.6281455E-1,1.9498934E-1,7.837313E-2,-4.774096E-2,1.2386247E-2,-1.9126748E-1,-1.2561564E-1,1.7843831E-2,1.7590578E-1,1.6876917E-1,2.645036E-1,8.673337E-2,1.9275434E-1,7.5408556E-2,3.8602734E-1,3.7193355E-1,2.6580212E-1,2.0255113E-1,3.8689086E-1,3.327421E-1,2.1963373E-1,6.259356E-1,5.405058E-1,5.227947E-1,2.8069457E-1],"categories":[],"categories_nodes":[],"categories_segments":[],"categories_sizes":[],"default_left":[0,0,0,0,0,0,0,0,0,0,0,0,0,0,0,0,0,0,0,0,0,0,0,0,0,0,0,0,0,0,0,0,0,0,0,0,0,0,0,0,0,0,0,0,0,0,0,0,0,0,0,0,0,0,0,0,0,0,0,0,0,0,0,0,0,0,0,0,0,0,0,0,0,0,0,0,0,0,0,0,0,0,0,0,0,0,0,0,0,0,0,0,0,0,0,0,0,0,0,0,0],"id":14,"left_children":[1,3,5,7,9,11,13,15,17,19,21,23,25,27,29,-1,31,33,35,37,39,41,43,45,47,49,51,53,55,57,59,61,63,-1,-1,65,67,69,71,73,75,77,79,81,83,85,87,89,91,-1,-1,93,95,97,-1,-1,99,-1,-1,-1,-1,-1,-1,-1,-1,-1,-1,-1,-1,-1,-1,-1,-1,-1,-1,-1,-1,-1,-1,-1,-1,-1,-1,-1,-1,-1,-1,-1,-1,-1,-1,-1,-1,-1,-1,-1,-1,-1,-1,-1,-1],"loss_changes":[6.032443E5,2.9152666E5,3.124975E4,7.2481875E3,1.3812648E4,2.9491875E3,6.5917188E3,1.5470938E3,6.0703125E2,5.643965E2,5.4983184E3,4.831328E2,8.866328E2,7.022969E2,1.2800469E3,0E0,8.2034375E2,1.01203125E2,1.8623242E2,2.3981348E2,1.1152832E2,8.5075903E2,6.8969434E2,1.5259546E2,2.1943652E2,3.7335938E1,1.3924805E2,6.652344E1,5.1972656E1,1.210625E2,2.6607812E2,9.178906E1,2.9403125E2,0E0,0E0,2.1780762E1,6.313086E1,4.8378906E1,1.4284619E2,2.8603516E0,1.0979932E2,2.1891718E2,7.7334436E2,1.2304736E2,9.743113E1,8.179932E1,7.9698975E1,1.725E1,9.286426E1,0E0,0E0,7.7441406E0,6.0322266E0,1.8523438E1,0E0,0E0,7.4609375E0,0E0,0E0,0E0,0E0,0E0,0E0,0E0,0E0,0E0,0E0,0E0,0E0,0E0,0E0,0E0,0E0,0E0,0E0,0E0,0E0,0E0,0E0,0E0,0E0,0E0,0E0,0E0,0E0,0E0,0E0,0E0,0E0,0E0,0E0,0E0,0E0,0E0,0E0,0E0,0E0,0E0,0E0,0E0,0E0],"parents":[2147483647,0,0,1,1,2,2,3,3,4,4,5,5,6,6,7,7,8,8,9,9,10,10,11,11,12,12,13,13,14,14,16,16,17,17,18,18,19,19,20,20,21,21,22,22,23,23,24,24,25,25,26,26,27,27,28,28,29,29,30,30,31,31,32,32,35,35,36,36,37,37,38,38,39,39,40,40,41,41,42,42,43,43,44,44,45,45,46,46,47,47,48,48,51,51,52,52,53,53,56,56],"right_children":[2,4,6,8,10,12,14,16,18,20,22,24,26,28,30,-1,32,34,36,38,40,42,44,46,48,50,52,54,56,58,60,62,64,-1,-1,66,68,70,72,74,76,78,80,82,84,86,88,90,92,-1,-1,94,96,98,-1,-1,100,-1,-1,-1,-1,-1,-1,-1,-1,-1,-1,-1,-1,-1,-1,-1,-1,-1,-1,-1,-1,-1,-1,-1,-1,-1,-1,-1,-1,-1,-1,-1,-1,-1,-1,-1,-1,-1,-1,-1,-1,-1,-1,-1,-1],"split_conditions":[1.2508E1,1.1212E1,1.3508E1,1.0802E1,1.1627E1,1.3113E1,1.3879E1,1.0243E1,1.0913E1,2.0088125E1,1.9714E4,1.2788E1,2.267539E1,1.5127544E1,1.4105E1,-7.182232E-1,-7.1669406E-1,5.7852E1,1.67099E1,1.1386E1,1.1514E1,2.594E3,1.2138E1,1.435032E1,5.409817E2,3.0686417E1,2.5401041E1,1.375E1,1.1E1,1.1539925E1,7.1451335E0,6.108E3,1.9119375E1,-5.0019425E-1,-4.054164E-1,9.987833E2,6.2738E1,2.2371458E1,2.3249166E1,1.0777E3,3.9429E0,1E1,1.1758E1,1.0754E3,3.1772268E0,6.3709E1,2.6889668E1,1.0754E3,1.4443E1,4.3739897E-1,4.9420223E-1,1.5917163E-1,5.9913864E0,9.352667E-1,6.1087316E-1,4.650549E-1,2.5577208E1,6.871626E-1,6.176607E-1,8.416954E-1,7.372497E-1,-4.1425696E-1,-5.274816E-1,-7.055124E-1,-5.792574E-1,-1.6235782E-1,-3.103776E-1,-4.720757E-1,-3.643873E-1,-2.8399223E-1,-2.1188323E-1,-1.9859767E-1,-1.2425889E-1,-2.9930502E-1,-1.8091829E-1,-1.5264535E-1,-2.6281455E-1,1.9498934E-1,7.837313E-2,-4.774096E-2,1.2386247E-2,-1.9126748E-1,-1.2561564E-1,1.7843831E-2,1.7590578E-1,1.6876917E-1,2.645036E-1,8.673337E-2,1.9275434E-1,7.5408556E-2,3.8602734E-1,3.7193355E-1,2.6580212E-1,2.0255113E-1,3.8689086E-1,3.327421E-1,2.1963373E-1,6.259356E-1,5.405058E-1,5.227947E-1,2.8069457E-1],"split_indices":[9,9,9,9,9,9,9,9,9,20,0,9,20,20,9,0,117,11,16,9,9,0,9,41,80,58,20,9,115,18,16,0,60,0,0,28,4,60,60,7,5,115,9,7,81,11,58,7,20,0,0,79,31,98,0,0,20,0,0,0,0,0,0,0,0,0,0,0,0,0,0,0,0,0,0,0,0,0,0,0,0,0,0,0,0,0,0,0,0,0,0,0,0,0,0,0,0,0,0,0,0],"split_type":[0,0,0,0,0,0,0,0,0,0,0,0,0,0,0,0,0,0,0,0,0,0,0,0,0,0,0,0,0,0,0,0,0,0,0,0,0,0,0,0,0,0,0,0,0,0,0,0,0,0,0,0,0,0,0,0,0,0,0,0,0,0,0,0,0,0,0,0,0,0,0,0,0,0,0,0,0,0,0,0,0,0,0,0,0,0,0,0,0,0,0,0,0,0,0,0,0,0,0,0,0],"sum_hessian":[1.7549E4,1.3288E4,4.261E3,3.699E3,9.589E3,1.723E3,2.538E3,3.095E3,6.04E2,7.88E2,8.801E3,6E2,1.123E3,1.3E3,1.238E3,1.88E2,2.907E3,2.03E2,4.01E2,4.65E2,3.23E2,7.933E3,8.68E2,1.96E2,4.04E2,4.97E2,6.26E2,7.01E2,5.99E2,7.51E2,4.87E2,9.45E2,1.962E3,1.04E2,9.9E1,2.03E2,1.98E2,1.81E2,2.84E2,2.03E2,1.2E2,2.03E2,7.73E3,8.22E2,4.6E1,1.2E2,7.6E1,6.6E1,3.38E2,3.76E2,1.21E2,3.29E2,2.97E2,3.37E2,3.64E2,1.7E2,4.29E2,5.34E2,2.17E2,1.91E2,2.96E2,4E1,9.05E2,6.9E1,1.893E3,6E0,1.97E2,3E1,1.68E2,4.3E1,1.38E2,1.15E2,1.69E2,1.97E2,6E0,3.9E1,8.1E1,5.6E1,1.47E2,5.77E2,7.153E3,8.3E1,7.39E2,3.3E1,1.3E1,4.3E1,7.7E1,4.1E1,3.5E1,1E0,6.5E1,2.9E1,3.09E2,4E0,3.25E2,2.88E2,9E0,5.8E1,2.79E2,4.25E2,4E0],"tree_param":{"num_deleted":"0","num_feature":"118","num_nodes":"101","size_leaf_vector":"1"}},{"base_weights":[-9.917435E-3,-3.1481273E0,9.895176E0,-1.0309861E1,-3.8274682E-1,7.45206E0,1.2508375E1,-1.0898103E1,-7.351997E0,-3.733268E0,2.0890372E-2,6.046659E0,8.910916E0,1.4406395E1,1.1465843E1,-1.1692264E1,-1.0289866E1,-6.597298E0,-8.866072E0,-2.211415E0,-4.6104755E0,-2.2005718E0,2.5516242E-1,4.8962054E0,6.720756E0,8.076983E0,9.517098E0,7.8964096E-1,6.830482E-1,1.2257842E1,1.0519766E1,-1.3429342E1,-1.1356071E1,-8.825638E0,-1.0434706E1,-7.3331776E0,-5.7854195E0,-4.8795888E-1,-3.9047953E-1,-3.3062391E0,-9.3708986E-1,-4.017057E0,-5.543534E0,-2.439071E0,9.644024E-2,1.8533282E-1,2.319629E0,6.374426E0,4.261112E0,7.6784E0,6.152587E0,4.281752E-1,7.4031854E0,5.41218E-1,9.223017E0,5.9818006E-1,6.731156E-1,5.628188E-1,1.0046239E1,-6.863081E-1,-5.335984E-1,-6.6591233E-1,-5.6135654E-1,-3.347714E-1,-4.5125422E-1,-5.059459E-1,-5.476148E-1,-2.3944043E-1,-3.7105465E-1,-2.5031704E-1,-3.096762E-1,-1.913111E-1,-1.3690382E-1,-8.6480394E-2,-1.953434E-3,-2.47328E-1,-1.575955E-1,-3.1114215E-1,-2.5570193E-1,-1.3145477E-1,-9.8360956E-2,-1.1707528E-1,2.24184E-2,5.661708E-2,4.9094125E-3,2.1087697E-1,5.1959705E-2,2.239565E-1,3.349479E-1,1.651572E-1,2.4513982E-1,4.708402E-1,3.6425456E-1,2.7312347E-1,3.2373422E-1,3.7100032E-1,1.01816945E-1,4.695948E-1,4.1360497E-1,5.085873E-1,4.1214657E-1],"categories":[],"categories_nodes":[],"categories_segments":[],"categories_sizes":[],"default_left":[0,0,0,0,0,0,0,0,0,0,0,0,0,0,0,0,0,0,0,0,0,0,0,0,0,0,0,0,0,0,0,0,0,0,0,0,0,0,0,0,0,0,0,0,0,0,0,0,0,0,0,0,0,0,0,0,0,0,0,0,0,0,0,0,0,0,0,0,0,0,0,0,0,0,0,0,0,0,0,0,0,0,0,0,0,0,0,0,0,0,0,0,0,0,0,0,0,0,0,0,0],"id":15,"left_children":[1,3,5,7,9,11,13,15,17,19,21,23,25,27,29,31,33,35,37,39,41,43,45,47,49,51,53,-1,-1,55,57,59,61,63,65,67,69,-1,-1,71,73,75,77,79,81,83,85,87,89,91,93,-1,95,-1,97,-1,-1,-1,99,-1,-1,-1,-1,-1,-1,-1,-1,-1,-1,-1,-1,-1,-1,-1,-1,-1,-1,-1,-1,-1,-1,-1,-1,-1,-1,-1,-1,-1,-1,-1,-1,-1,-1,-1,-1,-1,-1,-1,-1,-1,-1],"loss_changes":[5.45591E5,2.639758E5,2.6867906E4,6.38025E3,1.3006061E4,4.4259688E3,3.8695E3,1.3747188E3,6.488164E2,1.3701738E3,4.4679023E3,8.325742E2,4.6403125E2,5.273281E2,8.60875E2,6.27125E2,2.8135938E2,2.0670898E2,1.15325195E2,5.270636E2,3.4040137E2,4.4891284E2,1.119123E3,3.6338184E2,3.3417383E2,8.6416016E1,1.3621875E2,0E0,0E0,9.163281E1,9.933594E1,2.6203125E1,1.3509375E2,9.676758E0,1.5020312E2,1.2555664E1,3.3535645E1,0E0,0E0,4.9792236E1,1.25902954E2,3.0928857E2,4.169922E1,6.135791E1,6.797236E1,6.1991187E2,6.1287537E2,4.5649414E1,1.6453125E2,1.0711621E2,6.354883E1,0E0,2.8544922E0,0E0,3.890625E0,0E0,0E0,0E0,2.1601562E0,0E0,0E0,0E0,0E0,0E0,0E0,0E0,0E0,0E0,0E0,0E0,0E0,0E0,0E0,0E0,0E0,0E0,0E0,0E0,0E0,0E0,0E0,0E0,0E0,0E0,0E0,0E0,0E0,0E0,0E0,0E0,0E0,0E0,0E0,0E0,0E0,0E0,0E0,0E0,0E0,0E0,0E0],"parents":[2147483647,0,0,1,1,2,2,3,3,4,4,5,5,6,6,7,7,8,8,9,9,10,10,11,11,12,12,13,13,14,14,15,15,16,16,17,17,18,18,19,19,20,20,21,21,22,22,23,23,24,24,25,25,26,26,29,29,30,30,31,31,32,32,33,33,34,34,35,35,36,36,39,39,40,40,41,41,42,42,43,43,44,44,45,45,46,46,47,47,48,48,49,49,50,50,52,52,54,54,58,58],"right_children":[2,4,6,8,10,12,14,16,18,20,22,24,26,28,30,32,34,36,38,40,42,44,46,48,50,52,54,-1,-1,56,58,60,62,64,66,68,70,-1,-1,72,74,76,78,80,82,84,86,88,90,92,94,-1,96,-1,98,-1,-1,-1,100,-1,-1,-1,-1,-1,-1,-1,-1,-1,-1,-1,-1,-1,-1,-1,-1,-1,-1,-1,-1,-1,-1,-1,-1,-1,-1,-1,-1,-1,-1,-1,-1,-1,-1,-1,-1,-1,-1,-1,-1,-1,-1],"split_conditions":[1.2601E1,1.1212E1,1.365E1,1.0802E1,1.1684E1,1.3313E1,1.0242E1,1.0466E1,2.1769E1,1.4049E1,5.6018E1,1.305E1,1.3467E1,7.2737E0,1.3836E1,1.8843E1,6.278E3,1.1011E1,-1.7134367E1,1.1514E1,2.3907E1,2.368656E0,1.2357E1,1.7401E1,2.5009E1,2.258235E1,1.4766E1,7.8964096E-1,6.830482E-1,1.4052E1,5.333175E2,-3.0525883E1,-4.4471817E1,9E0,2.258235E1,5.936E3,1.1759E1,-4.8795888E-1,-3.9047953E-1,2.2547E1,-7.670583E-1,1.1485E1,2.3515E1,2.5415E1,2.5218E1,3.196E3,2.3014E1,7E0,1.2787E1,1.3423E1,1.3057333E1,4.281752E-1,5.4998206E2,5.41218E-1,4.353425E0,5.9818006E-1,6.731156E-1,5.628188E-1,4.4523916E0,-6.863081E-1,-5.335984E-1,-6.6591233E-1,-5.6135654E-1,-3.347714E-1,-4.5125422E-1,-5.059459E-1,-5.476148E-1,-2.3944043E-1,-3.7105465E-1,-2.5031704E-1,-3.096762E-1,-1.913111E-1,-1.3690382E-1,-8.6480394E-2,-1.953434E-3,-2.47328E-1,-1.575955E-1,-3.1114215E-1,-2.5570193E-1,-1.3145477E-1,-9.8360956E-2,-1.1707528E-1,2.24184E-2,5.661708E-2,4.9094125E-3,2.1087697E-1,5.1959705E-2,2.239565E-1,3.349479E-1,1.651572E-1,2.4513982E-1,4.708402E-1,3.6425456E-1,2.7312347E-1,3.2373422E-1,3.7100032E-1,1.01816945E-1,4.695948E-1,4.1360497E-1,5.085873E-1,4.1214657E-1],"split_indices":[9,9,9,9,9,9,2,9,2,2,11,9,9,2,2,6,0,9,116,9,2,116,9,2,2,20,2,0,0,9,78,116,116,115,20,0,2,0,0,6,116,9,6,6,6,0,2,115,82,2,86,0,80,0,21,0,0,0,19,0,0,0,0,0,0,0,0,0,0,0,0,0,0,0,0,0,0,0,0,0,0,0,0,0,0,0,0,0,0,0,0,0,0,0,0,0,0,0,0,0,0],"split_type":[0,0,0,0,0,0,0,0,0,0,0,0,0,0,0,0,0,0,0,0,0,0,0,0,0,0,0,0,0,0,0,0,0,0,0,0,0,0,0,0,0,0,0,0,0,0,0,0,0,0,0,0,0,0,0,0,0,0,0,0,0,0,0,0,0,0,0,0,0,0,0,0,0,0,0,0,0,0,0,0,0,0,0,0,0,0,0,0,0,0,0,0,0,0,0,0,0,0,0,0,0],"sum_hessian":[1.755E4,1.3328E4,4.222E3,3.712E3,9.616E3,2.184E3,2.038E3,3.094E3,6.18E2,1.033E3,8.583E3,1.115E3,1.069E3,7.18E2,1.32E3,1.334E3,1.76E3,4.16E2,2.02E2,3.79E2,6.54E2,8.18E2,7.765E3,4.15E2,7E2,4.56E2,6.13E2,2.44E2,4.74E2,7.12E2,6.08E2,2.1E2,1.124E3,1.64E2,1.596E3,2.14E2,2.02E2,1.05E2,9.7E1,2.03E2,1.76E2,4.03E2,2.51E2,7.41E2,7.7E1,7.512E3,2.53E2,1.22E2,2.93E2,2.56E2,4.44E2,2.58E2,1.98E2,1.06E2,5.07E2,5.81E2,1.31E2,2.29E2,3.79E2,1.86E2,2.4E1,6.3E1,1.061E3,1.7E1,1.47E2,1.004E3,5.92E2,9E0,2.05E2,7.4E1,1.28E2,1.03E2,1E2,9.3E1,8.3E1,1.92E2,2.11E2,9.2E1,1.59E2,5.25E2,2.16E2,9E0,6.8E1,6.32E2,6.88E3,1.01E2,1.52E2,2E1,1.02E2,1.2E2,1.73E2,4.3E1,2.13E2,1.47E2,2.97E2,1.97E2,1E0,4.23E2,8.4E1,3.5E2,2.9E1],"tree_param":{"num_deleted":"0","num_feature":"118","num_nodes":"101","size_leaf_vector":"1"}},{"base_weights":[5.8176357E-2,-2.9342918E0,9.437815E0,-9.751655E0,-3.714678E-1,1.1483177E1,6.8545055E0,-1.0238948E1,-6.409902E0,-4.025531E0,-4.7225237E-2,1.2975904E1,1.0085949E1,5.7390547E0,8.228303E0,-1.2024831E1,-9.978181E0,-5.215017E0,-7.7934756E0,-3.0905912E0,-5.33529E0,1.4979285E-1,-2.2026775E0,1.4736837E1,1.2403105E1,1.0787029E1,9.207194E0,7.58979E0,5.172221E0,7.82012E0,5.427465E-1,-6.6472065E-1,-1.12446575E1,-8.161493E0,-1.01452675E1,-3.6756384E0,-5.550018E0,-7.105161E0,-4.5213714E-1,-4.0238433E0,-2.0499656E0,-6.01715E0,-4.5629873E0,-1.9358802E-1,6.0177845E-1,-2.301123E0,5.3491116E-2,7.1755546E-1,8.5594684E-1,1.1865096E1,6.615548E-1,1.1456892E1,1.0249564E1,1.580452E-1,9.234576E0,6.8725944E0,8.8252E0,4.337881E0,5.8923073E0,8.231354E0,6.922375E0,-5.2639407E-1,-6.3589174E-1,-3.1085065E-1,-4.279197E-1,-4.7393495E-1,-5.205573E-1,-1.9594653E-1,-1.09296754E-1,-2.521989E-1,-2.9831764E-1,-3.7778828E-1,-2.9829764E-1,-1.461536E-1,-2.3700313E-1,-3.9268993E-2,-1.3299315E-1,-2.858129E-1,-3.669475E-1,-1.5909138E-1,-2.4594514E-1,5.8458827E-4,-1.531772E-1,1.3631152E-1,2.2899061E-2,-1.04554236E-1,-1.354883E-1,9.618731E-2,-2.7356505E-2,6.139795E-1,5.345173E-1,6.514969E-2,5.743653E-1,4.7876874E-1,5.3869987E-1,4.8034048E-1,4.2756367E-1,3.451698E-1,5.1687624E-2,5.124619E-1,4.065809E-1,2.7436683E-1,1.8427676E-1,3.492999E-1,2.8466913E-1,1.0670624E-1,4.1196966E-1,3.4990337E-1,2.2597496E-1],"categories":[],"categories_nodes":[],"categories_segments":[],"categories_sizes":[],"default_left":[0,0,0,0,0,0,0,0,0,0,0,0,0,0,0,0,0,0,0,0,0,0,0,0,0,0,0,0,0,0,0,0,0,0,0,0,0,0,0,0,0,0,0,0,0,0,0,0,0,0,0,0,0,0,0,0,0,0,0,0,0,0,0,0,0,0,0,0,0,0,0,0,0,0,0,0,0,0,0,0,0,0,0,0,0,0,0,0,0,0,0,0,0,0,0,0,0,0,0,0,0,0,0,0,0,0,0,0,0],"id":16,"left_children":[1,3,5,7,9,11,13,15,17,19,21,23,25,27,29,31,33,35,37,39,41,43,45,47,49,51,53,55,57,59,-1,-1,61,63,65,67,69,71,-1,73,75,77,79,81,83,85,87,-1,-1,89,-1,91,93,-1,95,97,99,101,103,105,107,-1,-1,-1,-1,-1,-1,-1,-1,-1,-1,-1,-1,-1,-1,-1,-1,-1,-1,-1,-1,-1,-1,-1,-1,-1,-1,-1,-1,-1,-1,-1,-1,-1,-1,-1,-1,-1,-1,-1,-1,-1,-1,-1,-1,-1,-1,-1,-1],"loss_changes":[4.912224E5,2.3181092E5,2.2287625E4,5.8373125E3,1.1426047E4,4.7934062E3,2.8229688E3,1.3525938E3,7.2644727E2,9.460039E2,3.7624202E3,9.650781E2,6.5477344E2,1.0486172E3,8.125E2,2.4472656E2,7.5646875E2,1.095542E2,1.1890625E2,4.3945898E2,1.4421582E2,1.2600562E3,1.6492871E2,6.0859375E0,2.2832812E2,1.2558594E2,6.1867188E1,1.5288086E2,4.5327344E2,2.1178906E2,0E0,0E0,1.3326172E2,1.3047363E2,3.4934375E2,8.830261E0,1.3096191E1,2.781543E1,0E0,1.7693579E2,1.6758978E2,2.5661133E1,6.1526367E1,2.7183462E3,1.0694951E3,5.535913E1,3.6998615E1,0E0,0E0,1.2874219E2,0E0,7.521094E1,3.2601562E1,0E0,5.6976562E1,2.109961E1,6.1083984E-1,2.5946777E2,5.2688477E1,6.6289062E0,1.1113281E1,0E0,0E0,0E0,0E0,0E0,0E0,0E0,0E0,0E0,0E0,0E0,0E0,0E0,0E0,0E0,0E0,0E0,0E0,0E0,0E0,0E0,0E0,0E0,0E0,0E0,0E0,0E0,0E0,0E0,0E0,0E0,0E0,0E0,0E0,0E0,0E0,0E0,0E0,0E0,0E0,0E0,0E0,0E0,0E0,0E0,0E0,0E0,0E0],"parents":[2147483647,0,0,1,1,2,2,3,3,4,4,5,5,6,6,7,7,8,8,9,9,10,10,11,11,12,12,13,13,14,14,15,15,16,16,17,17,18,18,19,19,20,20,21,21,22,22,23,23,24,24,25,25,26,26,27,27,28,28,29,29,32,32,33,33,34,34,35,35,36,36,37,37,39,39,40,40,41,41,42,42,43,43,44,44,45,45,46,46,49,49,51,51,52,52,54,54,55,55,56,56,57,57,58,58,59,59,60,60],"right_children":[2,4,6,8,10,12,14,16,18,20,22,24,26,28,30,32,34,36,38,40,42,44,46,48,50,52,54,56,58,60,-1,-1,62,64,66,68,70,72,-1,74,76,78,80,82,84,86,88,-1,-1,90,-1,92,94,-1,96,98,100,102,104,106,108,-1,-1,-1,-1,-1,-1,-1,-1,-1,-1,-1,-1,-1,-1,-1,-1,-1,-1,-1,-1,-1,-1,-1,-1,-1,-1,-1,-1,-1,-1,-1,-1,-1,-1,-1,-1,-1,-1,-1,-1,-1,-1,-1,-1,-1,-1,-1,-1],"split_conditions":[2.7355E1,2.2185E1,5.3566E2,2.1004E1,-5.6847258E0,1.1403286E1,3.0503E1,1.8999E1,1.7944E1,2.1474E1,1.9971E4,7.5866E0,1.490375E1,5.3955334E2,3.1875E1,-3.454701E1,6.278E3,5.85E3,2.4003E1,2.334E1,2.3651E1,2.5174E1,1.0835E3,4.6668587E0,3.2978E1,1.3202E1,1.0913E3,1.3402333E1,2.9553E1,2.3372179E1,5.427465E-1,-6.6472065E-1,1.6562E1,6.022E3,-7.309622E-1,1.1475833E1,1.1759E1,1.0681E3,-4.5213714E-1,1.2181E1,1.2795E1,5.466314E-1,6E0,2.1588E1,5.4946E2,2.8385E1,2.4706E1,7.1755546E-1,8.5594684E-1,8.846E3,6.615548E-1,3.4306E0,1.3702333E1,1.580452E-1,1.8579E1,1.0264667E3,1.8322332E1,2.3177E1,2.2238E1,1.9311E1,3.0469E1,-5.2639407E-1,-6.3589174E-1,-3.1085065E-1,-4.279197E-1,-4.7393495E-1,-5.205573E-1,-1.9594653E-1,-1.09296754E-1,-2.521989E-1,-2.9831764E-1,-3.7778828E-1,-2.9829764E-1,-1.461536E-1,-2.3700313E-1,-3.9268993E-2,-1.3299315E-1,-2.858129E-1,-3.669475E-1,-1.5909138E-1,-2.4594514E-1,5.8458827E-4,-1.531772E-1,1.3631152E-1,2.2899061E-2,-1.04554236E-1,-1.354883E-1,9.618731E-2,-2.7356505E-2,6.139795E-1,5.345173E-1,6.514969E-2,5.743653E-1,4.7876874E-1,5.3869987E-1,4.8034048E-1,4.2756367E-1,3.451698E-1,5.1687624E-2,5.124619E-1,4.065809E-1,2.7436683E-1,1.8427676E-1,3.492999E-1,2.8466913E-1,1.0670624E-1,4.1196966E-1,3.4990337E-1,2.2597496E-1],"split_indices":[6,6,8,6,116,20,6,6,2,2,0,2,20,78,6,116,0,0,2,6,6,6,7,117,6,2,7,90,6,20,0,0,2,0,117,88,12,7,0,2,2,117,114,2,8,2,2,0,0,0,0,5,88,0,2,26,20,2,2,52,14,0,0,0,0,0,0,0,0,0,0,0,0,0,0,0,0,0,0,0,0,0,0,0,0,0,0,0,0,0,0,0,0,0,0,0,0,0,0,0,0,0,0,0,0,0,0,0,0],"split_type":[0,0,0,0,0,0,0,0,0,0,0,0,0,0,0,0,0,0,0,0,0,0,0,0,0,0,0,0,0,0,0,0,0,0,0,0,0,0,0,0,0,0,0,0,0,0,0,0,0,0,0,0,0,0,0,0,0,0,0,0,0,0,0,0,0,0,0,0,0,0,0,0,0,0,0,0,0,0,0,0,0,0,0,0,0,0,0,0,0,0,0,0,0,0,0,0,0,0,0,0,0,0,0,0,0,0,0,0,0],"sum_hessian":[1.7499E4,1.3267E4,4.232E3,3.624E3,9.643E3,2.36E3,1.872E3,3.161E3,4.63E2,7.85E2,8.858E3,1.137E3,1.223E3,1.036E3,8.36E2,3.97E2,2.764E3,2.51E2,2.12E2,4.6E2,3.25E2,8.117E3,7.41E2,2.73E2,8.64E2,6.74E2,5.49E2,2.4E2,7.96E2,7.27E2,1.09E2,1.45E2,2.52E2,2.37E2,2.527E3,4.7E1,2.04E2,1.41E2,7.1E1,2.41E2,2.19E2,1.69E2,1.56E2,4.613E3,3.504E3,7.1E2,3.1E1,2.41E2,3.2E1,5.33E2,3.31E2,2.91E2,3.83E2,3E0,5.46E2,1.56E2,8.4E1,3.72E2,4.24E2,4.93E2,2.34E2,1.75E2,7.7E1,4.3E1,1.94E2,7.31E2,1.796E3,3.9E1,8E0,9.8E1,1.06E2,9.7E1,4.4E1,9.7E1,1.44E2,7.2E1,1.47E2,1.42E2,2.7E1,3.4E1,1.22E2,4.306E3,3.07E2,2.21E2,3.283E3,4.73E2,2.37E2,7E0,2.4E1,3.87E2,1.46E2,1E0,2.9E2,1.76E2,2.07E2,3.45E2,2.01E2,1.55E2,1E0,2.3E1,6.1E1,1.32E2,2.4E2,6E1,3.64E2,1E0,4.92E2,2.25E2,9E0],"tree_param":{"num_deleted":"0","num_feature":"118","num_nodes":"109","size_leaf_vector":"1"}},{"base_weights":[-1.7618692E-2,-2.8247604E0,8.898598E0,-9.338241E0,-3.8401744E-1,1.08940525E1,6.4816775E0,-9.807909E0,-6.700185E0,-3.7194705E0,-3.7299592E-2,1.25294485E1,9.697477E0,5.4621563E0,7.7845054E0,-1.1499662E1,-9.54112E0,-5.5627027E0,-8.299222E0,-1.8363297E0,-4.2740326E0,-1.9357617E0,1.799205E-1,1.427533E1,1.1988585E1,1.0429425E1,8.818841E0,7.267025E0,4.906754E0,7.3749146E0,1.0035598E1,-6.2054205E-1,-1.0581552E1,-8.624958E0,-9.80696E0,-4.775057E0,-6.1943216E0,-3.700708E-1,-4.467898E-1,-2.7278278E0,-2.0714843E-1,-4.9893384E0,-3.2136407E0,-2.2294695E0,-1.469186E-1,3.383631E0,1.344663E-1,6.7646116E-1,7.770222E-1,8.91579E0,1.2127896E1,5.834296E-1,1.0120342E1,4.9913746E-1,8.507407E0,4.4176507E-1,6.6998143E0,4.012766E0,5.5234785E0,7.7041683E0,6.521127E0,5.184757E-1,3.5563514E-1,-4.9311477E-1,-5.912924E-1,-4.4001302E-1,-3.2480404E-1,-4.617482E-1,-5.0151604E-1,-1.714633E-1,-2.5427574E-1,-3.3387515E-1,-2.4850427E-1,-1.8205516E-1,-1.0993399E-1,1.0513721E-2,-4.2014595E-2,-1.9542772E-1,-2.6982296E-1,-1.251013E-1,-2.3803377E-1,-2.2300957E-1,-1.0261903E-1,-6.064753E-2,1.1807757E-2,1.0165518E-1,1.9439247E-1,-6.4204047E-3,2.4818033E-2,8.547745E-2,4.6447024E-1,6.33598E-1,5.7610244E-1,1.09199524E-1,5.071952E-1,4.2881432E-1,3.116214E-1,3.3624986E-1,5.0395586E-2,2.7039817E-1,1.6847835E-1,3.2978788E-1,2.6717612E-1,3.916357E-1,3.2312673E-1,3.4000683E-1,2.6070806E-1],"categories":[],"categories_nodes":[],"categories_segments":[],"categories_sizes":[],"default_left":[0,0,0,0,0,0,0,0,0,0,0,0,0,0,0,0,0,0,0,0,0,0,0,0,0,0,0,0,0,0,0,0,0,0,0,0,0,0,0,0,0,0,0,0,0,0,0,0,0,0,0,0,0,0,0,0,0,0,0,0,0,0,0,0,0,0,0,0,0,0,0,0,0,0,0,0,0,0,0,0,0,0,0,0,0,0,0,0,0,0,0,0,0,0,0,0,0,0,0,0,0,0,0,0,0,0,0],"id":17,"left_children":[1,3,5,7,9,11,13,15,17,19,21,23,25,27,29,31,33,35,37,39,41,43,45,47,49,51,53,55,57,59,61,-1,63,65,67,69,71,-1,-1,73,75,77,79,81,83,85,87,-1,-1,89,91,-1,93,-1,95,-1,97,99,101,103,105,-1,-1,-1,-1,-1,-1,-1,-1,-1,-1,-1,-1,-1,-1,-1,-1,-1,-1,-1,-1,-1,-1,-1,-1,-1,-1,-1,-1,-1,-1,